{"learner":{"attributes":{"scikit_learn":"{\"_estimator_type\": \"regressor\"}"},"feature_names":[],"feature_types":[],"gradient_booster":{"model":{"cats":{"enc":[],"feature_segments":[],"sorted_idx":[]},"gbtree_model_param":{"num_parallel_tree":"1","num_trees":"150"},"iteration_indptr":[0,1,2,3,4,5,6,7,8,9,10,11,12,13,14,15,16,17,18,19,20,21,22,23,24,25,26,27,28,29,30,31,32,33,34,35,36,37,38,39,40,41,42,43,44,45,46,47,48,49,50,51,52,53,54,55,56,57,58,59,60,61,62,63,64,65,66,67,68,69,70,71,72,73,74,75,76,77,78,79,80,81,82,83,84,85,86,87,88,89,90,91,92,93,94,95,96,97,98,99,100,101,102,103,104,105,106,107,108,109,110,111,112,113,114,115,116,117,118,119,120,121,122,123,124,125,126,127,128,129,130,131,132,133,134,135,136,137,138,139,140,141,142,143,144,145,146,147,148,149,150],"tree_info":[0,0,0,0,0,0,0,0,0,0,0,0,0,0,0,0,0,0,0,0,0,0,0,0,0,0,0,0,0,0,0,0,0,0,0,0,0,0,0,0,0,0,0,0,0,0,0,0,0,0,0,0,0,0,0,0,0,0,0,0,0,0,0,0,0,0,0,0,0,0,0,0,0,0,0,0,0,0,0,0,0,0,0,0,0,0,0,0,0,0,0,0,0,0,0,0,0,0,0,0,0,0,0,0,0,0,0,0,0,0,0,0,0,0,0,0,0,0,0,0,0,0,0,0,0,0,0,0,0,0,0,0,0,0,0,0,0,0,0,0,0,0,0,0,0,0,0,0,0,0],"trees":[{"base_weights":[9.6169175E-12,-4.6800933E-4,6.9717253E-3,1.006681E-3,-1.3220522E-3,3.992575E-3,6.141939E-4,2.0078563E-3,-1.4218187E-3,-4.804058E-3,-7.410341E-4,9.652683E-3,-4.2434185E-4,1.0492052E-3,6.695435E-3,-4.350747E-3,1.1111908E-3,-3.8983498E-3,-1.0183202E-2,-5.019581E-4,-1.16859535E-2,-1.4363958E-4,1.1845604E-2,-6.2891445E-3,4.1843206E-3,1.5954104E-3,-4.3473574E-3,8.681729E-3,2.8790648E-3,-5.884673E-3,-2.2309543E-4,2.7751375E-3,-4.897821E-3,-8.416855E-4,-4.7728545E-3,-1.2767121E-5,-3.754865E-4,4.9729077E-3,-8.763665E-4,-4.48869E-4,2.1291467E-5,-9.94699E-5,9.300612E-5,1.321125E-2,1.3806373E-5,-1.2488038E-2,1.4820354E-3,7.692159E-3,-2.123518E-3,7.712683E-5,-4.778462E-5,-1.5494748E-4,3.2896663E-5,3.0207974E-4,3.4875018E-5,-2.3406114E-5,1.2686565E-4,-2.14628E-4,6.0049664E-5,-1.8216572E-4,9.992943E-5,-9.649984E-5,1.4545849E-4,-2.019361E-5,-2.0525674E-4,-1.0649926E-4,6.1048246E-5,3.8127073E-5,-1.5921574E-4,2.3710774E-4,-2.2211485E-5,-1.2953722E-5,-1.3880467E-4,1.7217135E-4,4.4236434E-4,-2.8416132E-5,-4.805774E-4,6.2506806E-5,-4.8380866E-6,6.137768E-5,2.5236668E-4,-1.1531397E-4,4.5559882E-5],"categories":[],"categories_nodes":[],"categories_segments":[],"categories_sizes":[],"default_left":[0,0,0,0,0,0,0,0,0,0,0,0,0,0,0,0,0,0,0,0,0,0,0,0,0,0,0,0,0,0,0,0,0,0,0,0,0,0,0,0,0,0,0,0,0,0,0,0,0,0,0,0,0,0,0,0,0,0,0,0,0,0,0,0,0,0,0,0,0,0,0,0,0,0,0,0,0,0,0,0,0,0,0],"id":0,"left_children":[1,3,5,7,9,11,-1,13,15,17,19,21,23,25,27,29,31,33,35,37,39,41,43,45,47,49,51,53,55,57,59,61,63,65,67,-1,-1,69,71,-1,-1,-1,-1,73,-1,75,77,79,81,-1,-1,-1,-1,-1,-1,-1,-1,-1,-1,-1,-1,-1,-1,-1,-1,-1,-1,-1,-1,-1,-1,-1,-1,-1,-1,-1,-1,-1,-1,-1,-1,-1,-1],"loss_changes":[1.5041657E-3,5.4541277E-4,1.084718E-3,3.8944004E-4,5.5077166E-4,6.2910165E-4,0E0,5.0076906E-4,3.5352766E-4,1.5030784E-4,6.116677E-4,2.3800961E-4,4.3174924E-4,2.869608E-4,1.19033095E-4,1.3798042E-4,2.735577E-4,8.954009E-5,1.08496984E-4,4.7992E-4,2.1368149E-4,4.1147883E-5,1.3385597E-4,3.557167E-4,2.1547636E-4,2.7467095E-4,4.572008E-5,1.1349819E-4,4.281332E-5,1.7451931E-4,1.6574329E-4,2.7649757E-4,4.467329E-5,7.734065E-5,9.3938725E-5,0E0,0E0,2.5700938E-4,3.6148698E-4,0E0,0E0,0E0,0E0,7.0875976E-6,0E0,1.478389E-4,4.289969E-6,7.1831164E-6,3.0899733E-5,0E0,0E0,0E0,0E0,0E0,0E0,0E0,0E0,0E0,0E0,0E0,0E0,0E0,0E0,0E0,0E0,0E0,0E0,0E0,0E0,0E0,0E0,0E0,0E0,0E0,0E0,0E0,0E0,0E0,0E0,0E0,0E0,0E0,0E0],"parents":[2147483647,0,0,1,1,2,2,3,3,4,4,5,5,7,7,8,8,9,9,10,10,11,11,12,12,13,13,14,14,15,15,16,16,17,17,18,18,19,19,20,20,21,21,22,22,23,23,24,24,25,25,26,26,27,27,28,28,29,29,30,30,31,31,32,32,33,33,34,34,37,37,38,38,43,43,45,45,46,46,47,47,48,48],"right_children":[2,4,6,8,10,12,-1,14,16,18,20,22,24,26,28,30,32,34,36,38,40,42,44,46,48,50,52,54,56,58,60,62,64,66,68,-1,-1,70,72,-1,-1,-1,-1,74,-1,76,78,80,82,-1,-1,-1,-1,-1,-1,-1,-1,-1,-1,-1,-1,-1,-1,-1,-1,-1,-1,-1,-1,-1,-1,-1,-1,-1,-1,-1,-1,-1,-1,-1,-1,-1,-1],"split_conditions":[1.4992676E0,-4.1564393E-1,1.0823113E0,1.9851832E-1,-2.2856764E-1,-8.802762E-1,6.141939E-4,-4.509042E-1,-2.4113373E-1,1.1243186E0,1.3598094E0,-6.1375755E-1,-6.364201E-1,-5.918368E-1,-4.4834042E-1,3.2256725E-1,1.108101E0,-8.9286435E-1,5.3775324E-3,-1.6096784E-2,8.6372405E-2,-1.228009E0,8.653504E-1,-2.654601E-1,-1.2529303E-1,6.021863E-1,6.2232584E-1,-2.1985398E-1,-8.9675087E-1,-4.3990952E-1,-1.3849057E0,-8.558495E-1,3.1487608E-1,-9.3851906E-1,-1.8650022E0,-1.2767121E-5,-3.754865E-4,3.957359E-1,1.6155871E0,-4.48869E-4,2.1291467E-5,-9.94699E-5,9.300612E-5,-9.3458766E-1,1.3806373E-5,-7.589034E-1,2.8223114E0,-6.292743E-1,2.6487823E0,7.712683E-5,-4.778462E-5,-1.5494748E-4,3.2896663E-5,3.0207974E-4,3.4875018E-5,-2.3406114E-5,1.2686565E-4,-2.14628E-4,6.0049664E-5,-1.8216572E-4,9.992943E-5,-9.649984E-5,1.4545849E-4,-2.019361E-5,-2.0525674E-4,-1.0649926E-4,6.1048246E-5,3.8127073E-5,-1.5921574E-4,2.3710774E-4,-2.2211485E-5,-1.2953722E-5,-1.3880467E-4,1.7217135E-4,4.4236434E-4,-2.8416132E-5,-4.805774E-4,6.2506806E-5,-4.8380866E-6,6.137768E-5,2.5236668E-4,-1.1531397E-4,4.5559882E-5],"split_indices":[2,1,3,2,1,0,0,0,3,3,2,4,0,0,1,4,3,2,0,0,0,0,3,3,0,4,4,3,3,1,3,4,2,2,3,0,0,1,1,0,0,0,0,1,0,1,2,0,2,0,0,0,0,0,0,0,0,0,0,0,0,0,0,0,0,0,0,0,0,0,0,0,0,0,0,0,0,0,0,0,0,0,0],"split_type":[0,0,0,0,0,0,0,0,0,0,0,0,0,0,0,0,0,0,0,0,0,0,0,0,0,0,0,0,0,0,0,0,0,0,0,0,0,0,0,0,0,0,0,0,0,0,0,0,0,0,0,0,0,0,0,0,0,0,0,0,0,0,0,0,0,0,0,0,0,0,0,0,0,0,0,0,0,0,0,0,0,0,0],"sum_hessian":[4.59E2,4.31E2,2.8E1,1.58E2,2.73E2,2.4E1,4E0,1.12E2,4.6E1,3.8E1,2.35E2,1E1,1.4E1,9.4E1,1.8E1,2.1E1,2.5E1,3.4E1,4E0,2.31E2,4E0,2E0,8E0,6E0,8E0,8.6E1,8E0,1.1E1,7E0,1.5E1,6E0,2E1,5E0,8E0,2.6E1,1E0,3E0,1.4E1,2.17E2,3E0,1E0,1E0,1E0,7E0,1E0,3E0,3E0,5E0,3E0,6.6E1,2E1,7E0,1E0,9E0,2E0,2E0,5E0,1.3E1,2E0,2E0,4E0,5E0,1.5E1,2E0,3E0,4E0,4E0,2E0,2.4E1,9E0,5E0,1.95E2,2.2E1,2E0,5E0,1E0,2E0,2E0,1E0,1E0,4E0,2E0,1E0],"tree_param":{"num_deleted":"0","num_feature":"5","num_nodes":"83","size_leaf_vector":"1"}},{"base_weights":[9.545424E-8,-4.5624873E-4,6.798047E-3,9.76068E-4,-1.2857455E-3,3.8893798E-3,5.9945317E-4,1.9506976E-3,-1.3879578E-3,-1.0932956E-3,-1.1420891E-2,9.419637E-3,-4.2543391E-4,1.0167531E-3,6.517752E-3,2.6738705E-4,-2.0438384E-3,-4.674162E-3,-4.866272E-4,-4.3876944E-4,2.0972095E-5,-1.4148497E-4,1.1560051E-2,-6.164945E-3,4.0859007E-3,1.5478854E-3,-4.2304983E-3,8.449357E-3,2.8056253E-3,-5.8907242E-3,-7.764217E-4,-3.7861578E-3,-9.955358E-3,4.838047E-3,-8.507716E-4,-9.797785E-5,9.161103E-5,1.289173E-2,1.3599278E-5,-1.22406455E-2,1.4519916E-3,7.513685E-3,-2.077251E-3,7.4847565E-5,-4.6419347E-5,-2.2737129E-4,-6.573151E-5,2.9392357E-4,3.417752E-5,-2.293799E-5,1.23694E-4,-2.6109783E-4,-2.325083E-5,-1.8586536E-4,1.6752234E-5,-2.4644554E-5,-1.3902462E-4,-1.2575615E-5,-3.670381E-4,2.3070583E-4,-2.1656195E-5,-1.2567093E-5,-1.3482157E-4,1.687279E-4,4.3130523E-4,-2.798989E-5,-4.709659E-4,6.125667E-5,-4.7655153E-6,6.045702E-5,2.4630985E-4,-1.1300769E-4,4.487648E-5],"categories":[],"categories_nodes":[],"categories_segments":[],"categories_sizes":[],"default_left":[0,0,0,0,0,0,0,0,0,0,0,0,0,0,0,0,0,0,0,0,0,0,0,0,0,0,0,0,0,0,0,0,0,0,0,0,0,0,0,0,0,0,0,0,0,0,0,0,0,0,0,0,0,0,0,0,0,0,0,0,0,0,0,0,0,0,0,0,0,0,0,0,0],"id":1,"left_children":[1,3,5,7,9,11,-1,13,15,17,19,21,23,25,27,-1,29,31,33,-1,-1,35,37,39,41,43,45,47,49,51,53,55,57,59,61,-1,-1,63,-1,65,67,69,71,-1,-1,-1,-1,-1,-1,-1,-1,-1,-1,-1,-1,-1,-1,-1,-1,-1,-1,-1,-1,-1,-1,-1,-1,-1,-1,-1,-1,-1,-1],"loss_changes":[1.4301162E-3,5.145151E-4,1.0343484E-3,3.6905138E-4,5.2195275E-4,6.005581E-4,0E0,4.7536055E-4,3.3575477E-4,5.84273E-4,2.0443206E-4,2.2674806E-4,4.135822E-4,2.7131184E-4,1.12531125E-4,0E0,2.1482863E-4,1.452067E-4,4.5395258E-4,0E0,0E0,3.9922703E-5,1.2727152E-4,3.4172088E-4,2.0574144E-4,2.5887965E-4,4.485657E-5,1.07094995E-4,4.0782958E-5,1.5152368E-4,2.566343E-4,8.418423E-5,1.0354782E-4,2.4341702E-4,3.411226E-4,0E0,0E0,5.4847915E-6,0E0,1.4177035E-4,4.1252824E-6,6.4369815E-6,2.978457E-5,0E0,0E0,0E0,0E0,0E0,0E0,0E0,0E0,0E0,0E0,0E0,0E0,0E0,0E0,0E0,0E0,0E0,0E0,0E0,0E0,0E0,0E0,0E0,0E0,0E0,0E0,0E0,0E0,0E0,0E0],"parents":[2147483647,0,0,1,1,2,2,3,3,4,4,5,5,7,7,8,8,9,9,10,10,11,11,12,12,13,13,14,14,16,16,17,17,18,18,21,21,22,22,23,23,24,24,25,25,26,26,27,27,28,28,29,29,30,30,31,31,32,32,33,33,34,34,37,37,39,39,40,40,41,41,42,42],"right_children":[2,4,6,8,10,12,-1,14,16,18,20,22,24,26,28,-1,30,32,34,-1,-1,36,38,40,42,44,46,48,50,52,54,56,58,60,62,-1,-1,64,-1,66,68,70,72,-1,-1,-1,-1,-1,-1,-1,-1,-1,-1,-1,-1,-1,-1,-1,-1,-1,-1,-1,-1,-1,-1,-1,-1,-1,-1,-1,-1,-1,-1],"split_conditions":[1.4992676E0,-4.1564393E-1,1.0823113E0,1.9851832E-1,1.3598094E0,-8.802762E-1,5.9945317E-4,-4.509042E-1,-2.0571456E0,-2.2856764E-1,8.6372405E-2,-6.1375755E-1,-6.364201E-1,-5.918368E-1,-4.4834042E-1,2.6738705E-4,-8.558495E-1,1.1243186E0,-1.6096784E-2,-4.3876944E-4,2.0972095E-5,-1.228009E0,8.653504E-1,-2.654601E-1,-1.2529303E-1,6.021863E-1,-4.623589E-1,-2.1985398E-1,-8.9675087E-1,2.0001459E-1,-1.3849057E0,-8.9286435E-1,5.3775324E-3,3.957359E-1,1.6155871E0,-9.797785E-5,9.161103E-5,-9.3458766E-1,1.3599278E-5,-7.589034E-1,2.8223114E0,-6.292743E-1,2.6487823E0,7.4847565E-5,-4.6419347E-5,-2.2737129E-4,-6.573151E-5,2.9392357E-4,3.417752E-5,-2.293799E-5,1.23694E-4,-2.6109783E-4,-2.325083E-5,-1.8586536E-4,1.6752234E-5,-2.4644554E-5,-1.3902462E-4,-1.2575615E-5,-3.670381E-4,2.3070583E-4,-2.1656195E-5,-1.2567093E-5,-1.3482157E-4,1.687279E-4,4.3130523E-4,-2.798989E-5,-4.709659E-4,6.125667E-5,-4.7655153E-6,6.045702E-5,2.4630985E-4,-1.1300769E-4,4.487648E-5],"split_indices":[2,1,3,2,2,0,0,0,0,1,0,4,0,0,1,0,4,3,0,0,0,0,3,3,0,4,3,3,3,3,3,2,0,1,1,0,0,1,0,1,2,0,2,0,0,0,0,0,0,0,0,0,0,0,0,0,0,0,0,0,0,0,0,0,0,0,0,0,0,0,0,0,0],"split_type":[0,0,0,0,0,0,0,0,0,0,0,0,0,0,0,0,0,0,0,0,0,0,0,0,0,0,0,0,0,0,0,0,0,0,0,0,0,0,0,0,0,0,0,0,0,0,0,0,0,0,0,0,0,0,0,0,0,0,0,0,0,0,0,0,0,0,0,0,0,0,0,0,0],"sum_hessian":[4.59E2,4.31E2,2.8E1,1.58E2,2.73E2,2.4E1,4E0,1.12E2,4.6E1,2.69E2,4E0,1E1,1.4E1,9.4E1,1.8E1,2E0,4.4E1,3.8E1,2.31E2,3E0,1E0,2E0,8E0,6E0,8E0,8.6E1,8E0,1.1E1,7E0,1E1,3.4E1,3.4E1,4E0,1.4E1,2.17E2,1E0,1E0,7E0,1E0,3E0,3E0,5E0,3E0,6.6E1,2E1,2E0,6E0,9E0,2E0,2E0,5E0,6E0,4E0,6E0,2.8E1,8E0,2.6E1,1E0,3E0,9E0,5E0,1.95E2,2.2E1,2E0,5E0,1E0,2E0,2E0,1E0,1E0,4E0,2E0,1E0],"tree_param":{"num_deleted":"0","num_feature":"5","num_nodes":"73","size_leaf_vector":"1"}},{"base_weights":[2.6991938E-7,-4.4469396E-4,6.628688E-3,9.4664824E-4,-1.2504557E-3,3.7888358E-3,5.8506633E-4,1.8936297E-3,-1.3502783E-3,-1.0622805E-3,-1.1161824E-2,9.192253E-3,-4.2625947E-4,9.834645E-4,6.3447906E-3,2.620393E-4,-1.9926003E-3,-4.547867E-3,-4.717626E-4,-4.2889712E-4,2.0657515E-5,-1.3936264E-4,1.1281431E-2,-6.043206E-3,3.989839E-3,1.5017756E-3,-4.1361502E-3,8.223218E-3,2.734051E-3,-5.7398523E-3,-7.5796095E-4,-3.6772492E-3,-9.73262E-3,4.7068424E-3,-8.2592457E-4,-9.6508185E-5,9.023686E-5,1.2579982E-2,1.3395289E-5,-1.1998165E-2,1.4225546E-3,7.3394026E-3,-2.0319663E-3,-7.395282E-5,6.69591E-5,-2.2282386E-4,-6.4041276E-5,2.8598765E-4,3.349397E-5,-2.247923E-5,1.2060165E-4,-2.552699E-4,-2.145238E-5,-1.8108597E-4,1.6266995E-5,-2.3987366E-5,-1.3500835E-4,-1.238698E-5,-3.5877974E-4,2.2447678E-4,-2.1114789E-5,-1.2192005E-5,-1.3095277E-4,1.6535335E-4,4.2052259E-4,-2.7570042E-5,-4.6154656E-4,6.003154E-5,-4.694032E-6,5.955016E-5,2.4039843E-4,-1.1074754E-4,4.4203334E-5],"categories":[],"categories_nodes":[],"categories_segments":[],"categories_sizes":[],"default_left":[0,0,0,0,0,0,0,0,0,0,0,0,0,0,0,0,0,0,0,0,0,0,0,0,0,0,0,0,0,0,0,0,0,0,0,0,0,0,0,0,0,0,0,0,0,0,0,0,0,0,0,0,0,0,0,0,0,0,0,0,0,0,0,0,0,0,0,0,0,0,0,0,0],"id":2,"left_children":[1,3,5,7,9,11,-1,13,15,17,19,21,23,25,27,-1,29,31,33,-1,-1,35,37,39,41,43,45,47,49,51,53,55,57,59,61,-1,-1,63,-1,65,67,69,71,-1,-1,-1,-1,-1,-1,-1,-1,-1,-1,-1,-1,-1,-1,-1,-1,-1,-1,-1,-1,-1,-1,-1,-1,-1,-1,-1,-1,-1,-1],"loss_changes":[1.3596748E-3,4.8549473E-4,9.863175E-4,3.4840527E-4,4.991731E-4,5.7331636E-4,0E0,4.515561E-4,3.218597E-4,5.5359583E-4,1.9558461E-4,2.160215E-4,3.9618625E-4,2.5829911E-4,1.0638498E-4,0E0,2.0384212E-4,1.4025433E-4,4.2939058E-4,0E0,0E0,3.8734004E-5,1.21010235E-4,3.2827616E-4,1.964472E-4,2.5750505E-4,4.3430846E-5,1.0104972E-4,3.8849164E-5,1.4697295E-4,2.4346876E-4,7.929589E-5,9.8823395E-5,2.3054375E-4,3.219053E-4,0E0,0E0,4.0199375E-6,0E0,1.3594935E-4,3.9669367E-6,5.7428842E-6,2.870992E-5,0E0,0E0,0E0,0E0,0E0,0E0,0E0,0E0,0E0,0E0,0E0,0E0,0E0,0E0,0E0,0E0,0E0,0E0,0E0,0E0,0E0,0E0,0E0,0E0,0E0,0E0,0E0,0E0,0E0,0E0],"parents":[2147483647,0,0,1,1,2,2,3,3,4,4,5,5,7,7,8,8,9,9,10,10,11,11,12,12,13,13,14,14,16,16,17,17,18,18,21,21,22,22,23,23,24,24,25,25,26,26,27,27,28,28,29,29,30,30,31,31,32,32,33,33,34,34,37,37,39,39,40,40,41,41,42,42],"right_children":[2,4,6,8,10,12,-1,14,16,18,20,22,24,26,28,-1,30,32,34,-1,-1,36,38,40,42,44,46,48,50,52,54,56,58,60,62,-1,-1,64,-1,66,68,70,72,-1,-1,-1,-1,-1,-1,-1,-1,-1,-1,-1,-1,-1,-1,-1,-1,-1,-1,-1,-1,-1,-1,-1,-1,-1,-1,-1,-1,-1,-1],"split_conditions":[1.4992676E0,-4.1564393E-1,1.0823113E0,1.9851832E-1,1.3598094E0,-8.802762E-1,5.8506633E-4,-4.509042E-1,-2.0571456E0,-2.2856764E-1,8.6372405E-2,-6.1375755E-1,-6.364201E-1,-5.918368E-1,-4.4834042E-1,2.620393E-4,-8.558495E-1,1.1243186E0,-1.6096784E-2,-4.2889712E-4,2.0657515E-5,-1.228009E0,8.653504E-1,-2.654601E-1,-1.2529303E-1,-8.114113E-1,-4.623589E-1,-2.1985398E-1,-8.9675087E-1,-5.539049E-1,-1.3849057E0,-8.9286435E-1,5.3775324E-3,3.957359E-1,1.6155871E0,-9.6508185E-5,9.023686E-5,-9.3458766E-1,1.3395289E-5,-7.589034E-1,2.8223114E0,-6.292743E-1,2.6487823E0,-7.395282E-5,6.69591E-5,-2.2282386E-4,-6.4041276E-5,2.8598765E-4,3.349397E-5,-2.247923E-5,1.2060165E-4,-2.552699E-4,-2.145238E-5,-1.8108597E-4,1.6266995E-5,-2.3987366E-5,-1.3500835E-4,-1.238698E-5,-3.5877974E-4,2.2447678E-4,-2.1114789E-5,-1.2192005E-5,-1.3095277E-4,1.6535335E-4,4.2052259E-4,-2.7570042E-5,-4.6154656E-4,6.003154E-5,-4.694032E-6,5.955016E-5,2.4039843E-4,-1.1074754E-4,4.4203334E-5],"split_indices":[2,1,3,2,2,0,0,0,0,1,0,4,0,0,1,0,4,3,0,0,0,0,3,3,0,2,3,3,3,0,3,2,0,1,1,0,0,1,0,1,2,0,2,0,0,0,0,0,0,0,0,0,0,0,0,0,0,0,0,0,0,0,0,0,0,0,0,0,0,0,0,0,0],"split_type":[0,0,0,0,0,0,0,0,0,0,0,0,0,0,0,0,0,0,0,0,0,0,0,0,0,0,0,0,0,0,0,0,0,0,0,0,0,0,0,0,0,0,0,0,0,0,0,0,0,0,0,0,0,0,0,0,0,0,0,0,0,0,0,0,0,0,0,0,0,0,0,0,0],"sum_hessian":[4.59E2,4.31E2,2.8E1,1.58E2,2.73E2,2.4E1,4E0,1.12E2,4.6E1,2.69E2,4E0,1E1,1.4E1,9.4E1,1.8E1,2E0,4.4E1,3.8E1,2.31E2,3E0,1E0,2E0,8E0,6E0,8E0,8.6E1,8E0,1.1E1,7E0,1E1,3.4E1,3.4E1,4E0,1.4E1,2.17E2,1E0,1E0,7E0,1E0,3E0,3E0,5E0,3E0,1.3E1,7.3E1,2E0,6E0,9E0,2E0,2E0,5E0,6E0,4E0,6E0,2.8E1,8E0,2.6E1,1E0,3E0,9E0,5E0,1.95E2,2.2E1,2E0,5E0,1E0,2E0,2E0,1E0,1E0,4E0,2E0,1E0],"tree_param":{"num_deleted":"0","num_feature":"5","num_nodes":"73","size_leaf_vector":"1"}},{"base_weights":[3.5691033E-7,-4.3351506E-4,6.4635407E-3,9.1789814E-4,-1.2161471E-3,3.6908758E-3,5.710247E-4,1.8379159E-3,-1.313589E-3,-1.0321527E-3,-1.0908617E-2,8.567449E-3,-7.526781E-4,9.508673E-4,6.176426E-3,-4.064164E-3,1.0643433E-3,-4.425025E-3,-4.5735022E-4,-1.39748985E-2,2.034765E-5,-1.3727213E-4,1.032212E-2,-7.600365E-3,3.8960776E-3,1.4566419E-3,-4.0439395E-3,8.0031445E-3,2.6642948E-3,-5.526024E-3,-1.4217554E-4,2.6900508E-3,-4.8030238E-3,-3.5714745E-3,-9.514874E-3,4.5791944E-3,-8.0180354E-4,-4.7389217E-4,-1.2765561E-4,-9.506056E-5,8.888331E-5,1.1371287E-2,1.319436E-5,-9.265673E-5,-4.523156E-4,7.1692117E-3,-1.9876433E-3,-3.4477813E-5,7.577837E-5,-1.450704E-4,3.4349807E-5,2.78266E-4,3.282409E-5,-2.2029646E-5,1.1758661E-4,-2.0193259E-4,5.818829E-5,-1.7118339E-4,9.6738666E-5,-8.708404E-5,1.3857726E-4,-2.0450123E-5,-2.0079847E-4,-2.3347706E-5,-1.311081E-4,-1.2201176E-5,-3.5070718E-4,2.1841591E-4,-2.0586926E-5,-1.9045296E-5,-2.8726412E-4,3.682745E-4,6.202565E-5,2.6220709E-5,-2.1186743E-5,5.8656908E-5,2.3462885E-4,-1.08532586E-4,4.3540284E-5],"categories":[],"categories_nodes":[],"categories_segments":[],"categories_sizes":[],"default_left":[0,0,0,0,0,0,0,0,0,0,0,0,0,0,0,0,0,0,0,0,0,0,0,0,0,0,0,0,0,0,0,0,0,0,0,0,0,0,0,0,0,0,0,0,0,0,0,0,0,0,0,0,0,0,0,0,0,0,0,0,0,0,0,0,0,0,0,0,0,0,0,0,0,0,0,0,0,0,0],"id":3,"left_children":[1,3,5,7,9,11,-1,13,15,17,19,21,23,25,27,29,31,33,35,37,-1,39,41,43,45,47,49,51,53,55,57,59,61,63,65,67,69,-1,-1,-1,-1,71,-1,73,-1,75,77,-1,-1,-1,-1,-1,-1,-1,-1,-1,-1,-1,-1,-1,-1,-1,-1,-1,-1,-1,-1,-1,-1,-1,-1,-1,-1,-1,-1,-1,-1,-1,-1],"loss_changes":[1.2927314E-3,4.5802514E-4,9.405165E-4,3.288425E-4,4.7738143E-4,5.4818136E-4,0E0,4.2900402E-4,3.1173768E-4,5.245387E-4,1.8712162E-4,1.8470408E-4,4.7527673E-4,2.45884E-4,1.00575155E-4,1.2534909E-4,2.6092457E-4,1.3545115E-4,4.061578E-4,3.6014826E-6,0E0,3.75807E-5,9.868061E-5,3.3540578E-4,1.8757372E-4,2.4532853E-4,4.2511427E-5,9.5342635E-5,3.700737E-5,1.5700056E-4,1.4952863E-4,2.3999208E-4,4.217992E-5,7.469114E-5,9.431344E-5,2.1835134E-4,3.1325937E-4,0E0,0E0,0E0,0E0,5.0359406E-5,0E0,2.9897537E-6,0E0,5.0974777E-6,2.7674298E-5,0E0,0E0,0E0,0E0,0E0,0E0,0E0,0E0,0E0,0E0,0E0,0E0,0E0,0E0,0E0,0E0,0E0,0E0,0E0,0E0,0E0,0E0,0E0,0E0,0E0,0E0,0E0,0E0,0E0,0E0,0E0,0E0],"parents":[2147483647,0,0,1,1,2,2,3,3,4,4,5,5,7,7,8,8,9,9,10,10,11,11,12,12,13,13,14,14,15,15,16,16,17,17,18,18,19,19,21,21,22,22,23,23,24,24,25,25,26,26,27,27,28,28,29,29,30,30,31,31,32,32,33,33,34,34,35,35,36,36,41,41,43,43,45,45,46,46],"right_children":[2,4,6,8,10,12,-1,14,16,18,20,22,24,26,28,30,32,34,36,38,-1,40,42,44,46,48,50,52,54,56,58,60,62,64,66,68,70,-1,-1,-1,-1,72,-1,74,-1,76,78,-1,-1,-1,-1,-1,-1,-1,-1,-1,-1,-1,-1,-1,-1,-1,-1,-1,-1,-1,-1,-1,-1,-1,-1,-1,-1,-1,-1,-1,-1,-1,-1],"split_conditions":[1.4992676E0,-4.1564393E-1,1.0823113E0,1.9851832E-1,1.3598094E0,-8.6317277E-1,5.710247E-4,-4.509042E-1,-2.4113373E-1,-2.2856764E-1,8.6372405E-2,-6.1375755E-1,-6.364201E-1,-5.918368E-1,-4.4834042E-1,3.2256725E-1,1.108101E0,1.1243186E0,-1.6096784E-2,8.653504E-1,2.034765E-5,-1.228009E0,8.653504E-1,-7.589034E-1,-1.2529303E-1,-5.5965656E-1,6.2232584E-1,-2.1985398E-1,-8.9675087E-1,-4.3990952E-1,-1.3849057E0,-8.558495E-1,3.1487608E-1,-8.9286435E-1,5.3775324E-3,3.957359E-1,1.9524579E0,-4.7389217E-4,-1.2765561E-4,-9.506056E-5,8.888331E-5,-1.0078676E0,1.319436E-5,-7.7183664E-1,-4.523156E-4,-6.292743E-1,2.6487823E0,-3.4477813E-5,7.577837E-5,-1.450704E-4,3.4349807E-5,2.78266E-4,3.282409E-5,-2.2029646E-5,1.1758661E-4,-2.0193259E-4,5.818829E-5,-1.7118339E-4,9.6738666E-5,-8.708404E-5,1.3857726E-4,-2.0450123E-5,-2.0079847E-4,-2.3347706E-5,-1.311081E-4,-1.2201176E-5,-3.5070718E-4,2.1841591E-4,-2.0586926E-5,-1.9045296E-5,-2.8726412E-4,3.682745E-4,6.202565E-5,2.6220709E-5,-2.1186743E-5,5.8656908E-5,2.3462885E-4,-1.08532586E-4,4.3540284E-5],"split_indices":[2,1,3,2,2,0,0,0,3,1,0,4,0,0,1,4,3,3,0,3,0,0,3,1,0,2,4,3,3,1,3,4,2,2,0,1,1,0,0,0,0,0,0,1,0,0,2,0,0,0,0,0,0,0,0,0,0,0,0,0,0,0,0,0,0,0,0,0,0,0,0,0,0,0,0,0,0,0,0],"split_type":[0,0,0,0,0,0,0,0,0,0,0,0,0,0,0,0,0,0,0,0,0,0,0,0,0,0,0,0,0,0,0,0,0,0,0,0,0,0,0,0,0,0,0,0,0,0,0,0,0,0,0,0,0,0,0,0,0,0,0,0,0,0,0,0,0,0,0,0,0,0,0,0,0,0,0,0,0,0,0],"sum_hessian":[4.59E2,4.31E2,2.8E1,1.58E2,2.73E2,2.4E1,4E0,1.12E2,4.6E1,2.69E2,4E0,1.1E1,1.3E1,9.4E1,1.8E1,2.1E1,2.5E1,3.8E1,2.31E2,3E0,1E0,2E0,9E0,5E0,8E0,8.6E1,8E0,1.1E1,7E0,1.5E1,6E0,2E1,5E0,3.4E1,4E0,1.4E1,2.17E2,2E0,1E0,1E0,1E0,8E0,1E0,3E0,2E0,5E0,3E0,2.5E1,6.1E1,7E0,1E0,9E0,2E0,2E0,5E0,1.3E1,2E0,2E0,4E0,5E0,1.5E1,2E0,3E0,8E0,2.6E1,1E0,3E0,9E0,5E0,2.14E2,3E0,7E0,1E0,1E0,2E0,1E0,4E0,2E0,1E0],"tree_param":{"num_deleted":"0","num_feature":"5","num_nodes":"79","size_leaf_vector":"1"}},{"base_weights":[-6.7209874E-7,-4.2342112E-4,6.2968535E-3,8.9004217E-4,-1.184068E-3,3.5888825E-3,5.5732013E-4,1.7857626E-3,-1.2824356E-3,-1.0035061E-3,-1.0697598E-2,8.346869E-3,-7.457398E-4,9.216105E-4,6.0125357E-3,2.5402696E-4,-1.9039372E-3,-4.30554E-3,-4.440973E-4,-1.3706038E-2,2.0042437E-5,-1.3521314E-4,1.0056806E-2,-7.4469014E-3,3.804561E-3,1.4134174E-3,-3.9349236E-3,7.788975E-3,2.5963108E-3,-5.461545E-3,-7.3143357E-4,-3.4687433E-3,-9.30201E-3,4.455007E-3,-7.791545E-4,-4.6441433E-4,-1.2574079E-4,-9.363465E-5,8.755006E-5,1.1077959E-2,1.2996445E-5,-8.861853E-5,-4.4326932E-4,7.0030163E-3,-1.9442621E-3,6.9972666E-5,-4.7578535E-5,-2.1546597E-4,-5.9433056E-5,2.707528E-4,3.2167605E-5,-2.1589052E-5,1.1464695E-4,-2.449899E-4,-1.747613E-5,-1.7150049E-4,1.4913733E-5,-2.2725097E-5,-1.2732054E-4,-1.2018158E-5,-3.4281626E-4,2.1251867E-4,-2.0072248E-5,-8.1400685E-6,-1.055811E-4,3.586073E-4,6.109526E-5,2.58274E-5,-2.0763007E-5,5.7777055E-5,2.2899777E-4,-1.06361935E-4,4.288718E-5],"categories":[],"categories_nodes":[],"categories_segments":[],"categories_sizes":[],"default_left":[0,0,0,0,0,0,0,0,0,0,0,0,0,0,0,0,0,0,0,0,0,0,0,0,0,0,0,0,0,0,0,0,0,0,0,0,0,0,0,0,0,0,0,0,0,0,0,0,0,0,0,0,0,0,0,0,0,0,0,0,0,0,0,0,0,0,0,0,0,0,0,0,0],"id":4,"left_children":[1,3,5,7,9,11,-1,13,15,17,19,21,23,25,27,-1,29,31,33,35,-1,37,39,41,43,45,47,49,51,53,55,57,59,61,63,-1,-1,-1,-1,65,-1,67,-1,69,71,-1,-1,-1,-1,-1,-1,-1,-1,-1,-1,-1,-1,-1,-1,-1,-1,-1,-1,-1,-1,-1,-1,-1,-1,-1,-1,-1,-1],"loss_changes":[1.2273118E-3,4.3265717E-4,8.9772884E-4,3.1169347E-4,4.59937E-4,5.2182644E-4,0E0,4.071998E-4,3.0092482E-4,4.9682835E-4,1.8012157E-4,1.754057E-4,4.5522442E-4,2.3246699E-4,9.508297E-5,0E0,1.837141E-4,1.3079384E-4,3.842946E-4,2.6486232E-6,0E0,3.6461734E-5,9.347242E-5,3.2225234E-4,1.791019E-4,2.4350888E-4,4.287272E-5,8.995482E-5,3.525315E-5,1.4040613E-4,2.172053E-4,7.035362E-5,9.0008514E-5,2.0680393E-4,3.0239933E-4,0E0,0E0,0E0,0E0,4.6908157E-5,0E0,2.8879388E-6,0E0,4.497968E-6,2.6676276E-5,0E0,0E0,0E0,0E0,0E0,0E0,0E0,0E0,0E0,0E0,0E0,0E0,0E0,0E0,0E0,0E0,0E0,0E0,0E0,0E0,0E0,0E0,0E0,0E0,0E0,0E0,0E0,0E0],"parents":[2147483647,0,0,1,1,2,2,3,3,4,4,5,5,7,7,8,8,9,9,10,10,11,11,12,12,13,13,14,14,16,16,17,17,18,18,19,19,21,21,22,22,23,23,24,24,25,25,26,26,27,27,28,28,29,29,30,30,31,31,32,32,33,33,34,34,39,39,41,41,43,43,44,44],"right_children":[2,4,6,8,10,12,-1,14,16,18,20,22,24,26,28,-1,30,32,34,36,-1,38,40,42,44,46,48,50,52,54,56,58,60,62,64,-1,-1,-1,-1,66,-1,68,-1,70,72,-1,-1,-1,-1,-1,-1,-1,-1,-1,-1,-1,-1,-1,-1,-1,-1,-1,-1,-1,-1,-1,-1,-1,-1,-1,-1,-1,-1],"split_conditions":[1.4992676E0,-4.1564393E-1,1.0823113E0,1.9851832E-1,1.3598094E0,-8.6317277E-1,5.5732013E-4,-4.509042E-1,-2.0571456E0,-2.2856764E-1,8.6372405E-2,-6.1375755E-1,-6.364201E-1,-5.918368E-1,-4.4834042E-1,2.5402696E-4,-8.558495E-1,1.1243186E0,-1.6096784E-2,8.653504E-1,2.0042437E-5,-1.228009E0,8.653504E-1,-7.589034E-1,-1.2529303E-1,6.021863E-1,-4.623589E-1,-2.1985398E-1,-8.9675087E-1,-5.539049E-1,-1.3849057E0,-8.9286435E-1,5.3775324E-3,3.957359E-1,1.5230999E0,-4.6441433E-4,-1.2574079E-4,-9.363465E-5,8.755006E-5,-1.0078676E0,1.2996445E-5,-7.7183664E-1,-4.4326932E-4,-6.292743E-1,2.6487823E0,6.9972666E-5,-4.7578535E-5,-2.1546597E-4,-5.9433056E-5,2.707528E-4,3.2167605E-5,-2.1589052E-5,1.1464695E-4,-2.449899E-4,-1.747613E-5,-1.7150049E-4,1.4913733E-5,-2.2725097E-5,-1.2732054E-4,-1.2018158E-5,-3.4281626E-4,2.1251867E-4,-2.0072248E-5,-8.1400685E-6,-1.055811E-4,3.586073E-4,6.109526E-5,2.58274E-5,-2.0763007E-5,5.7777055E-5,2.2899777E-4,-1.06361935E-4,4.288718E-5],"split_indices":[2,1,3,2,2,0,0,0,0,1,0,4,0,0,1,0,4,3,0,3,0,0,3,1,0,4,3,3,3,0,3,2,0,1,1,0,0,0,0,0,0,1,0,0,2,0,0,0,0,0,0,0,0,0,0,0,0,0,0,0,0,0,0,0,0,0,0,0,0,0,0,0,0],"split_type":[0,0,0,0,0,0,0,0,0,0,0,0,0,0,0,0,0,0,0,0,0,0,0,0,0,0,0,0,0,0,0,0,0,0,0,0,0,0,0,0,0,0,0,0,0,0,0,0,0,0,0,0,0,0,0,0,0,0,0,0,0,0,0,0,0,0,0,0,0,0,0,0,0],"sum_hessian":[4.59E2,4.31E2,2.8E1,1.58E2,2.73E2,2.4E1,4E0,1.12E2,4.6E1,2.69E2,4E0,1.1E1,1.3E1,9.4E1,1.8E1,2E0,4.4E1,3.8E1,2.31E2,3E0,1E0,2E0,9E0,5E0,8E0,8.6E1,8E0,1.1E1,7E0,1E1,3.4E1,3.4E1,4E0,1.4E1,2.17E2,2E0,1E0,1E0,1E0,8E0,1E0,3E0,2E0,5E0,3E0,6.6E1,2E1,2E0,6E0,9E0,2E0,2E0,5E0,6E0,4E0,6E0,2.8E1,8E0,2.6E1,1E0,3E0,9E0,5E0,1.84E2,3.3E1,7E0,1E0,1E0,2E0,1E0,4E0,2E0,1E0],"tree_param":{"num_deleted":"0","num_feature":"5","num_nodes":"73","size_leaf_vector":"1"}},{"base_weights":[-1.1927513E-6,-4.130745E-4,6.1344663E-3,8.632054E-4,-1.152182E-3,3.4896845E-3,5.439444E-4,1.7334595E-3,-1.2474736E-3,-9.749792E-4,-1.0490693E-2,8.1320135E-3,-7.387178E-4,8.913043E-4,5.853001E-3,2.4894642E-4,-1.8561312E-3,-4.1893194E-3,-4.3043503E-4,-1.3442396E-2,1.97418E-5,-1.3318488E-4,9.798372E-3,-7.296528E-3,3.7152355E-3,1.3712723E-3,-3.8474202E-3,7.580549E-3,2.5300535E-3,-3.8786388E-3,7.5172924E-5,-3.368968E-3,-9.093916E-3,4.3341867E-3,-7.563015E-4,-4.5512605E-4,-1.2385467E-4,-9.223013E-5,8.623681E-5,1.07922545E-2,1.2801498E-5,-8.469391E-5,-4.3440392E-4,6.8407217E-3,-1.9018028E-3,-7.18739E-5,6.196291E-5,-2.1115664E-4,-5.7904785E-5,2.634425E-4,3.1524258E-5,-2.1157273E-5,1.1178077E-4,-1.9299438E-4,-4.84583E-5,4.7401856E-5,-1.4108513E-4,-3.1304513E-5,-1.2772267E-4,-1.1837886E-5,-3.351029E-4,2.0678066E-4,-1.9570445E-5,-1.7825634E-5,-2.784251E-4,3.4919384E-4,6.0178838E-5,2.5439987E-5,-2.0347747E-5,5.6910398E-5,2.2350182E-4,-1.042347E-4,4.2243875E-5],"categories":[],"categories_nodes":[],"categories_segments":[],"categories_sizes":[],"default_left":[0,0,0,0,0,0,0,0,0,0,0,0,0,0,0,0,0,0,0,0,0,0,0,0,0,0,0,0,0,0,0,0,0,0,0,0,0,0,0,0,0,0,0,0,0,0,0,0,0,0,0,0,0,0,0,0,0,0,0,0,0,0,0,0,0,0,0,0,0,0,0,0,0],"id":5,"left_children":[1,3,5,7,9,11,-1,13,15,17,19,21,23,25,27,-1,29,31,33,35,-1,37,39,41,43,45,47,49,51,53,55,57,59,61,63,-1,-1,-1,-1,65,-1,67,-1,69,71,-1,-1,-1,-1,-1,-1,-1,-1,-1,-1,-1,-1,-1,-1,-1,-1,-1,-1,-1,-1,-1,-1,-1,-1,-1,-1,-1,-1],"loss_changes":[1.1650304E-3,4.085036E-4,8.568821E-4,2.9421793E-4,4.431897E-4,4.9674814E-4,0E0,3.8681334E-4,2.8847516E-4,4.7079136E-4,1.733849E-4,1.6657845E-4,4.3602285E-4,2.2134729E-4,8.9891255E-5,0E0,1.7606505E-4,1.2627908E-4,3.6348822E-4,1.7625862E-6,0E0,3.5376084E-5,8.853781E-5,3.096153E-4,1.710135E-4,2.3244826E-4,4.147862E-5,8.486863E-5,3.3582353E-5,1.1680776E-4,1.7999978E-4,6.787051E-5,8.589914E-5,1.9586735E-4,2.9574923E-4,0E0,0E0,0E0,0E0,4.367181E-5,0E0,2.7896172E-6,0E0,3.9415318E-6,2.5714482E-5,0E0,0E0,0E0,0E0,0E0,0E0,0E0,0E0,0E0,0E0,0E0,0E0,0E0,0E0,0E0,0E0,0E0,0E0,0E0,0E0,0E0,0E0,0E0,0E0,0E0,0E0,0E0,0E0],"parents":[2147483647,0,0,1,1,2,2,3,3,4,4,5,5,7,7,8,8,9,9,10,10,11,11,12,12,13,13,14,14,16,16,17,17,18,18,19,19,21,21,22,22,23,23,24,24,25,25,26,26,27,27,28,28,29,29,30,30,31,31,32,32,33,33,34,34,39,39,41,41,43,43,44,44],"right_children":[2,4,6,8,10,12,-1,14,16,18,20,22,24,26,28,-1,30,32,34,36,-1,38,40,42,44,46,48,50,52,54,56,58,60,62,64,-1,-1,-1,-1,66,-1,68,-1,70,72,-1,-1,-1,-1,-1,-1,-1,-1,-1,-1,-1,-1,-1,-1,-1,-1,-1,-1,-1,-1,-1,-1,-1,-1,-1,-1,-1,-1],"split_conditions":[1.4992676E0,-4.1564393E-1,1.0823113E0,1.9851832E-1,1.3598094E0,-8.6317277E-1,5.439444E-4,-4.509042E-1,-2.0571456E0,-2.2856764E-1,8.6372405E-2,-6.1375755E-1,-6.364201E-1,-5.918368E-1,-4.4834042E-1,2.4894642E-4,-2.4113373E-1,1.1243186E0,-1.6096784E-2,8.653504E-1,1.97418E-5,-1.228009E0,8.653504E-1,-7.589034E-1,-1.2529303E-1,-8.114113E-1,-4.623589E-1,-2.1985398E-1,-8.9675087E-1,-1.4591894E-1,1.108101E0,-3.7612957E-1,5.3775324E-3,3.957359E-1,1.9524579E0,-4.5512605E-4,-1.2385467E-4,-9.223013E-5,8.623681E-5,-1.0078676E0,1.2801498E-5,-7.7183664E-1,-4.3440392E-4,-6.292743E-1,2.6487823E0,-7.18739E-5,6.196291E-5,-2.1115664E-4,-5.7904785E-5,2.634425E-4,3.1524258E-5,-2.1157273E-5,1.1178077E-4,-1.9299438E-4,-4.84583E-5,4.7401856E-5,-1.4108513E-4,-3.1304513E-5,-1.2772267E-4,-1.1837886E-5,-3.351029E-4,2.0678066E-4,-1.9570445E-5,-1.7825634E-5,-2.784251E-4,3.4919384E-4,6.0178838E-5,2.5439987E-5,-2.0347747E-5,5.6910398E-5,2.2350182E-4,-1.042347E-4,4.2243875E-5],"split_indices":[2,1,3,2,2,0,0,0,0,1,0,4,0,0,1,0,3,3,0,3,0,0,3,1,0,2,3,3,3,4,3,1,0,1,1,0,0,0,0,0,0,1,0,0,2,0,0,0,0,0,0,0,0,0,0,0,0,0,0,0,0,0,0,0,0,0,0,0,0,0,0,0,0],"split_type":[0,0,0,0,0,0,0,0,0,0,0,0,0,0,0,0,0,0,0,0,0,0,0,0,0,0,0,0,0,0,0,0,0,0,0,0,0,0,0,0,0,0,0,0,0,0,0,0,0,0,0,0,0,0,0,0,0,0,0,0,0,0,0,0,0,0,0,0,0,0,0,0,0],"sum_hessian":[4.59E2,4.31E2,2.8E1,1.58E2,2.73E2,2.4E1,4E0,1.12E2,4.6E1,2.69E2,4E0,1.1E1,1.3E1,9.4E1,1.8E1,2E0,4.4E1,3.8E1,2.31E2,3E0,1E0,2E0,9E0,5E0,8E0,8.6E1,8E0,1.1E1,7E0,2.1E1,2.3E1,3.4E1,4E0,1.4E1,2.17E2,2E0,1E0,1E0,1E0,8E0,1E0,3E0,2E0,5E0,3E0,1.3E1,7.3E1,2E0,6E0,9E0,2E0,2E0,5E0,9E0,1.2E1,1.8E1,5E0,1E1,2.4E1,1E0,3E0,9E0,5E0,2.14E2,3E0,7E0,1E0,1E0,2E0,1E0,4E0,2E0,1E0],"tree_param":{"num_deleted":"0","num_feature":"5","num_nodes":"73","size_leaf_vector":"1"}},{"base_weights":[-2.0365078E-6,-4.0335316E-4,5.976268E-3,8.374377E-4,-1.121902E-3,3.3932056E-3,5.308898E-4,1.6823992E-3,-1.2118833E-3,-9.480076E-4,-1.0287819E-2,7.922735E-3,-7.3162E-4,8.6162856E-4,5.697705E-3,2.439675E-4,-1.8078948E-3,-4.0766136E-3,-4.1799198E-4,-3.9551608E-4,1.9445673E-5,-1.3118719E-4,9.5466385E-3,-7.149184E-3,3.6280474E-3,1.3300201E-3,-3.7618934E-3,7.377713E-3,2.4654798E-3,-5.2601E-3,-6.712618E-4,-3.2724426E-3,-8.890487E-3,8.959918E-5,-3.3765992E-3,-9.084668E-5,8.494326E-5,1.05139725E-2,1.2609476E-5,-8.0880025E-5,-4.2571584E-4,6.6822353E-3,-1.8602465E-3,6.6613014E-5,-4.7224738E-5,-2.0693353E-4,-5.6415804E-5,2.563295E-4,3.089377E-5,-2.0734129E-5,1.0898625E-4,-2.3681823E-4,-1.5621046E-5,-1.6522496E-4,1.5577582E-5,-1.9677338E-5,-1.2070255E-4,-1.1660319E-5,-3.275631E-4,1.2649926E-4,-7.3653064E-6,-1.335104E-4,7.127844E-5,3.400275E-4,5.9276153E-5,2.5058387E-5,-1.9940791E-5,5.6056742E-5,2.1813776E-4,-1.0215E-4,4.161022E-5],"categories":[],"categories_nodes":[],"categories_segments":[],"categories_sizes":[],"default_left":[0,0,0,0,0,0,0,0,0,0,0,0,0,0,0,0,0,0,0,0,0,0,0,0,0,0,0,0,0,0,0,0,0,0,0,0,0,0,0,0,0,0,0,0,0,0,0,0,0,0,0,0,0,0,0,0,0,0,0,0,0,0,0,0,0,0,0,0,0,0,0],"id":6,"left_children":[1,3,5,7,9,11,-1,13,15,17,19,21,23,25,27,-1,29,31,33,-1,-1,35,37,39,41,43,45,47,49,51,53,55,57,59,61,-1,-1,63,-1,65,-1,67,69,-1,-1,-1,-1,-1,-1,-1,-1,-1,-1,-1,-1,-1,-1,-1,-1,-1,-1,-1,-1,-1,-1,-1,-1,-1,-1,-1,-1],"loss_changes":[1.1060394E-3,3.8609726E-4,8.178883E-4,2.7736285E-4,4.2697624E-4,4.7288442E-4,0E0,3.6749855E-4,2.7645513E-4,4.460127E-4,1.6690174E-4,1.5819794E-4,4.1763583E-4,2.1073717E-4,8.4983534E-5,0E0,1.7304414E-4,1.218823E-4,3.487115E-4,0E0,0E0,3.4322766E-5,8.386269E-5,2.9747444E-4,1.6329112E-4,2.2847035E-4,4.0126397E-5,8.006726E-5,3.199099E-5,1.332007E-4,2.0437616E-4,6.613429E-5,8.19765E-5,2.762544E-4,2.2058445E-4,0E0,0E0,4.0637562E-5,0E0,2.6946684E-6,0E0,3.4254917E-6,2.4787589E-5,0E0,0E0,0E0,0E0,0E0,0E0,0E0,0E0,0E0,0E0,0E0,0E0,0E0,0E0,0E0,0E0,0E0,0E0,0E0,0E0,0E0,0E0,0E0,0E0,0E0,0E0,0E0,0E0],"parents":[2147483647,0,0,1,1,2,2,3,3,4,4,5,5,7,7,8,8,9,9,10,10,11,11,12,12,13,13,14,14,16,16,17,17,18,18,21,21,22,22,23,23,24,24,25,25,26,26,27,27,28,28,29,29,30,30,31,31,32,32,33,33,34,34,37,37,39,39,41,41,42,42],"right_children":[2,4,6,8,10,12,-1,14,16,18,20,22,24,26,28,-1,30,32,34,-1,-1,36,38,40,42,44,46,48,50,52,54,56,58,60,62,-1,-1,64,-1,66,-1,68,70,-1,-1,-1,-1,-1,-1,-1,-1,-1,-1,-1,-1,-1,-1,-1,-1,-1,-1,-1,-1,-1,-1,-1,-1,-1,-1,-1,-1],"split_conditions":[1.4992676E0,-4.1564393E-1,1.0823113E0,1.9851832E-1,1.3598094E0,-8.6317277E-1,5.308898E-4,-4.509042E-1,-2.0571456E0,-2.2856764E-1,8.6372405E-2,-6.1375755E-1,-6.364201E-1,-5.918368E-1,-4.4834042E-1,2.439675E-4,-8.558495E-1,1.1243186E0,1.5230999E0,-3.9551608E-4,1.9445673E-5,-1.228009E0,8.653504E-1,-7.589034E-1,-1.2529303E-1,6.021863E-1,-4.623589E-1,-2.1985398E-1,-8.9675087E-1,-5.539049E-1,-1.3849057E0,-8.9286435E-1,5.3775324E-3,-1.6096784E-2,2.3971143E-1,-9.084668E-5,8.494326E-5,-1.0078676E0,1.2609476E-5,-7.7183664E-1,-4.2571584E-4,-6.292743E-1,2.6487823E0,6.6613014E-5,-4.7224738E-5,-2.0693353E-4,-5.6415804E-5,2.563295E-4,3.089377E-5,-2.0734129E-5,1.0898625E-4,-2.3681823E-4,-1.5621046E-5,-1.6522496E-4,1.5577582E-5,-1.9677338E-5,-1.2070255E-4,-1.1660319E-5,-3.275631E-4,1.2649926E-4,-7.3653064E-6,-1.335104E-4,7.127844E-5,3.400275E-4,5.9276153E-5,2.5058387E-5,-1.9940791E-5,5.6056742E-5,2.1813776E-4,-1.0215E-4,4.161022E-5],"split_indices":[2,1,3,2,2,0,0,0,0,1,0,4,0,0,1,0,4,3,1,0,0,0,3,1,0,4,3,3,3,0,3,2,0,0,2,0,0,0,0,1,0,0,2,0,0,0,0,0,0,0,0,0,0,0,0,0,0,0,0,0,0,0,0,0,0,0,0,0,0,0,0],"split_type":[0,0,0,0,0,0,0,0,0,0,0,0,0,0,0,0,0,0,0,0,0,0,0,0,0,0,0,0,0,0,0,0,0,0,0,0,0,0,0,0,0,0,0,0,0,0,0,0,0,0,0,0,0,0,0,0,0,0,0,0,0,0,0,0,0,0,0,0,0,0,0],"sum_hessian":[4.59E2,4.31E2,2.8E1,1.58E2,2.73E2,2.4E1,4E0,1.12E2,4.6E1,2.69E2,4E0,1.1E1,1.3E1,9.4E1,1.8E1,2E0,4.4E1,3.8E1,2.31E2,3E0,1E0,2E0,9E0,5E0,8E0,8.6E1,8E0,1.1E1,7E0,1E1,3.4E1,3.4E1,4E0,1.98E2,3.3E1,1E0,1E0,8E0,1E0,3E0,2E0,5E0,3E0,6.6E1,2E1,2E0,6E0,9E0,2E0,2E0,5E0,6E0,4E0,6E0,2.8E1,8E0,2.6E1,1E0,3E0,1.4E1,1.84E2,2.8E1,5E0,7E0,1E0,1E0,2E0,1E0,4E0,2E0,1E0],"tree_param":{"num_deleted":"0","num_feature":"5","num_nodes":"71","size_leaf_vector":"1"}},{"base_weights":[-2.182865E-6,-3.9316318E-4,5.822151E-3,8.121472E-4,-1.0911602E-3,3.299372E-3,5.181485E-4,1.633091E-3,-1.178891E-3,-9.2113303E-4,-1.0054399E-2,7.718887E-3,-7.2445313E-4,8.332117E-4,5.546536E-3,2.3908814E-4,-1.7625933E-3,-3.9666127E-3,-4.0520699E-4,-1.2887232E-2,1.9153988E-5,-1.2921945E-4,9.301431E-3,-7.0048086E-3,3.5429453E-3,1.2903424E-3,-3.6782976E-3,7.180317E-3,2.402547E-3,-5.125246E-3,-6.553997E-4,-3.1782803E-3,-8.691616E-3,8.7509834E-5,-3.2771316E-3,-4.3811317E-4,-1.16064104E-4,-8.948398E-5,8.36691E-5,1.024292E-2,1.2420333E-5,-7.7174234E-5,-4.1720155E-4,6.527467E-3,-1.819574E-3,-3.5868135E-5,6.936073E-5,-1.3325276E-4,3.6440862E-5,3.3939275E-4,1.3637144E-4,-2.0319445E-5,1.0626161E-4,-2.3124526E-4,-1.452287E-5,-1.6097633E-4,1.5126367E-5,5.201809E-5,-1.05856016E-4,-1.1485413E-5,-3.2019292E-4,1.2295728E-4,-7.1455424E-6,-1.2964322E-4,6.9496484E-5,3.311018E-4,5.8387013E-5,2.4682511E-5,-1.9541978E-5,5.521589E-5,2.1290247E-4,-1.00107005E-4,4.0986062E-5],"categories":[],"categories_nodes":[],"categories_segments":[],"categories_sizes":[],"default_left":[0,0,0,0,0,0,0,0,0,0,0,0,0,0,0,0,0,0,0,0,0,0,0,0,0,0,0,0,0,0,0,0,0,0,0,0,0,0,0,0,0,0,0,0,0,0,0,0,0,0,0,0,0,0,0,0,0,0,0,0,0,0,0,0,0,0,0,0,0,0,0,0,0],"id":7,"left_children":[1,3,5,7,9,11,-1,13,15,17,19,21,23,25,27,-1,29,31,33,35,-1,37,39,41,43,45,47,49,51,53,55,57,59,61,63,-1,-1,-1,-1,65,-1,67,-1,69,71,-1,-1,-1,-1,-1,-1,-1,-1,-1,-1,-1,-1,-1,-1,-1,-1,-1,-1,-1,-1,-1,-1,-1,-1,-1,-1,-1,-1],"loss_changes":[1.0498009E-3,3.6432914E-4,7.8066415E-4,2.618156E-4,4.0831312E-4,4.5017592E-4,0E0,3.4910062E-4,2.6502705E-4,4.2262813E-4,1.5968352E-4,1.5024154E-4,4.0002854E-4,2.0066946E-4,8.034415E-5,0E0,1.6418073E-4,1.1764566E-4,3.2857736E-4,5.4229167E-6,0E0,3.3300803E-5,7.943349E-5,2.8581015E-4,1.5591824E-4,2.23731E-4,3.901586E-5,7.92325E-5,3.0475265E-5,1.2813395E-4,1.9388695E-4,6.6336506E-5,7.823217E-5,2.6094634E-4,2.086228E-4,0E0,0E0,0E0,0E0,3.7793652E-5,0E0,2.6029759E-6,0E0,2.947345E-6,2.3894328E-5,0E0,0E0,0E0,0E0,0E0,0E0,0E0,0E0,0E0,0E0,0E0,0E0,0E0,0E0,0E0,0E0,0E0,0E0,0E0,0E0,0E0,0E0,0E0,0E0,0E0,0E0,0E0,0E0],"parents":[2147483647,0,0,1,1,2,2,3,3,4,4,5,5,7,7,8,8,9,9,10,10,11,11,12,12,13,13,14,14,16,16,17,17,18,18,19,19,21,21,22,22,23,23,24,24,25,25,26,26,27,27,28,28,29,29,30,30,31,31,32,32,33,33,34,34,39,39,41,41,43,43,44,44],"right_children":[2,4,6,8,10,12,-1,14,16,18,20,22,24,26,28,-1,30,32,34,36,-1,38,40,42,44,46,48,50,52,54,56,58,60,62,64,-1,-1,-1,-1,66,-1,68,-1,70,72,-1,-1,-1,-1,-1,-1,-1,-1,-1,-1,-1,-1,-1,-1,-1,-1,-1,-1,-1,-1,-1,-1,-1,-1,-1,-1,-1,-1],"split_conditions":[1.4992676E0,-4.1564393E-1,1.0823113E0,1.9851832E-1,1.3598094E0,-8.6317277E-1,5.181485E-4,-4.509042E-1,-2.0571456E0,-2.2856764E-1,8.6372405E-2,-6.1375755E-1,-6.364201E-1,-5.918368E-1,-4.4834042E-1,2.3908814E-4,-8.558495E-1,1.1243186E0,1.5230999E0,8.653504E-1,1.9153988E-5,-1.228009E0,8.653504E-1,-7.589034E-1,-1.2529303E-1,-5.5965656E-1,6.2232584E-1,-5.7668656E-1,-8.9675087E-1,2.0001459E-1,-1.3849057E0,-1.8650022E0,5.3775324E-3,-1.6096784E-2,2.3971143E-1,-4.3811317E-4,-1.16064104E-4,-8.948398E-5,8.36691E-5,-1.0078676E0,1.2420333E-5,-7.7183664E-1,-4.1720155E-4,-6.292743E-1,2.6487823E0,-3.5868135E-5,6.936073E-5,-1.3325276E-4,3.6440862E-5,3.3939275E-4,1.3637144E-4,-2.0319445E-5,1.0626161E-4,-2.3124526E-4,-1.452287E-5,-1.6097633E-4,1.5126367E-5,5.201809E-5,-1.05856016E-4,-1.1485413E-5,-3.2019292E-4,1.2295728E-4,-7.1455424E-6,-1.2964322E-4,6.9496484E-5,3.311018E-4,5.8387013E-5,2.4682511E-5,-1.9541978E-5,5.521589E-5,2.1290247E-4,-1.00107005E-4,4.0986062E-5],"split_indices":[2,1,3,2,2,0,0,0,0,1,0,4,0,0,1,0,4,3,1,3,0,0,3,1,0,2,4,3,3,3,3,3,0,0,2,0,0,0,0,0,0,1,0,0,2,0,0,0,0,0,0,0,0,0,0,0,0,0,0,0,0,0,0,0,0,0,0,0,0,0,0,0,0],"split_type":[0,0,0,0,0,0,0,0,0,0,0,0,0,0,0,0,0,0,0,0,0,0,0,0,0,0,0,0,0,0,0,0,0,0,0,0,0,0,0,0,0,0,0,0,0,0,0,0,0,0,0,0,0,0,0,0,0,0,0,0,0,0,0,0,0,0,0,0,0,0,0,0,0],"sum_hessian":[4.59E2,4.31E2,2.8E1,1.58E2,2.73E2,2.4E1,4E0,1.12E2,4.6E1,2.69E2,4E0,1.1E1,1.3E1,9.4E1,1.8E1,2E0,4.4E1,3.8E1,2.31E2,3E0,1E0,2E0,9E0,5E0,8E0,8.6E1,8E0,1.1E1,7E0,1E1,3.4E1,3.4E1,4E0,1.98E2,3.3E1,2E0,1E0,1E0,1E0,8E0,1E0,3E0,2E0,5E0,3E0,2.5E1,6.1E1,7E0,1E0,3E0,8E0,2E0,5E0,6E0,4E0,6E0,2.8E1,2E0,3.2E1,1E0,3E0,1.4E1,1.84E2,2.8E1,5E0,7E0,1E0,1E0,2E0,1E0,4E0,2E0,1E0],"tree_param":{"num_deleted":"0","num_feature":"5","num_nodes":"73","size_leaf_vector":"1"}},{"base_weights":[-1.6995914E-6,-3.8256968E-4,5.6720097E-3,7.8995805E-4,-1.0615819E-3,3.2081122E-3,5.057129E-4,1.5885088E-3,-1.1467696E-3,-8.947206E-4,-9.8597715E-3,7.5203287E-3,-7.1722415E-4,8.075489E-4,5.409703E-3,2.3430638E-4,-1.7184181E-3,-3.8574992E-3,-3.9281076E-4,-1.2639159E-2,1.8866678E-5,-1.2728106E-4,9.062579E-3,-6.863341E-3,3.4598787E-3,1.2520172E-3,-3.5787055E-3,7.0045544E-3,2.3412134E-3,-3.6245948E-3,1.00511315E-4,-3.08447E-3,-8.497205E-3,8.546659E-5,-3.1805867E-3,-4.2935094E-4,-1.1432315E-4,-8.8141715E-5,8.2414066E-5,9.978909E-3,1.2234028E-5,-7.357387E-5,-4.088575E-4,6.37633E-3,-1.7797672E-3,6.353704E-5,-4.7105557E-5,-2.0012981E-4,-5.226587E-5,3.317564E-4,1.3273487E-4,-1.9913055E-5,1.0360507E-4,-1.4963427E-4,2.737088E-7,4.739454E-5,-1.3802137E-4,-2.5529014E-5,-1.1831497E-4,-1.1313131E-5,-3.129886E-4,1.19514465E-4,-6.932333E-6,-1.2588802E-4,6.775907E-5,3.2241037E-4,5.7511206E-5,2.4312274E-5,-1.9151137E-5,5.4387652E-5,2.077928E-4,-9.8104865E-5,4.0371273E-5],"categories":[],"categories_nodes":[],"categories_segments":[],"categories_sizes":[],"default_left":[0,0,0,0,0,0,0,0,0,0,0,0,0,0,0,0,0,0,0,0,0,0,0,0,0,0,0,0,0,0,0,0,0,0,0,0,0,0,0,0,0,0,0,0,0,0,0,0,0,0,0,0,0,0,0,0,0,0,0,0,0,0,0,0,0,0,0,0,0,0,0,0,0],"id":8,"left_children":[1,3,5,7,9,11,-1,13,15,17,19,21,23,25,27,-1,29,31,33,35,-1,37,39,41,43,45,47,49,51,53,55,57,59,61,63,-1,-1,-1,-1,65,-1,67,-1,69,71,-1,-1,-1,-1,-1,-1,-1,-1,-1,-1,-1,-1,-1,-1,-1,-1,-1,-1,-1,-1,-1,-1,-1,-1,-1,-1,-1,-1],"loss_changes":[9.962053E-4,3.4477998E-4,7.4512896E-4,2.4772715E-4,3.9343128E-4,4.285662E-4,0E0,3.3284602E-4,2.5407271E-4,3.9998762E-4,1.5370888E-4,1.4268782E-4,3.8316782E-4,1.8968795E-4,7.658271E-5,0E0,1.5638836E-4,1.1366914E-4,3.096044E-4,4.524656E-6,0E0,3.230927E-5,7.523701E-5,2.7460384E-4,1.488789E-4,2.1592743E-4,3.948898E-5,7.6585915E-5,2.9031587E-5,1.09023356E-4,1.7417752E-4,6.382255E-5,7.465805E-5,2.4648666E-4,1.9731137E-4,0E0,0E0,0E0,0E0,3.512873E-5,0E0,2.514427E-6,0E0,2.5048357E-6,2.3033466E-5,0E0,0E0,0E0,0E0,0E0,0E0,0E0,0E0,0E0,0E0,0E0,0E0,0E0,0E0,0E0,0E0,0E0,0E0,0E0,0E0,0E0,0E0,0E0,0E0,0E0,0E0,0E0,0E0],"parents":[2147483647,0,0,1,1,2,2,3,3,4,4,5,5,7,7,8,8,9,9,10,10,11,11,12,12,13,13,14,14,16,16,17,17,18,18,19,19,21,21,22,22,23,23,24,24,25,25,26,26,27,27,28,28,29,29,30,30,31,31,32,32,33,33,34,34,39,39,41,41,43,43,44,44],"right_children":[2,4,6,8,10,12,-1,14,16,18,20,22,24,26,28,-1,30,32,34,36,-1,38,40,42,44,46,48,50,52,54,56,58,60,62,64,-1,-1,-1,-1,66,-1,68,-1,70,72,-1,-1,-1,-1,-1,-1,-1,-1,-1,-1,-1,-1,-1,-1,-1,-1,-1,-1,-1,-1,-1,-1,-1,-1,-1,-1,-1,-1],"split_conditions":[1.4992676E0,-4.1564393E-1,1.0823113E0,1.9851832E-1,1.3598094E0,-8.6317277E-1,5.057129E-4,-4.509042E-1,-2.0571456E0,-2.2856764E-1,8.6372405E-2,-6.1375755E-1,-6.364201E-1,-5.918368E-1,-4.4834042E-1,2.3430638E-4,-2.4113373E-1,1.1243186E0,1.5230999E0,8.653504E-1,1.8866678E-5,-1.228009E0,8.653504E-1,-7.589034E-1,-1.2529303E-1,6.021863E-1,-4.623589E-1,-5.7668656E-1,-8.9675087E-1,3.2256725E-1,1.108101E0,-3.7612957E-1,5.3775324E-3,-1.6096784E-2,2.3971143E-1,-4.2935094E-4,-1.1432315E-4,-8.8141715E-5,8.2414066E-5,-1.0078676E0,1.2234028E-5,-7.7183664E-1,-4.088575E-4,-6.292743E-1,2.6487823E0,6.353704E-5,-4.7105557E-5,-2.0012981E-4,-5.226587E-5,3.317564E-4,1.3273487E-4,-1.9913055E-5,1.0360507E-4,-1.4963427E-4,2.737088E-7,4.739454E-5,-1.3802137E-4,-2.5529014E-5,-1.1831497E-4,-1.1313131E-5,-3.129886E-4,1.19514465E-4,-6.932333E-6,-1.2588802E-4,6.775907E-5,3.2241037E-4,5.7511206E-5,2.4312274E-5,-1.9151137E-5,5.4387652E-5,2.077928E-4,-9.8104865E-5,4.0371273E-5],"split_indices":[2,1,3,2,2,0,0,0,0,1,0,4,0,0,1,0,3,3,1,3,0,0,3,1,0,4,3,3,3,4,3,1,0,0,2,0,0,0,0,0,0,1,0,0,2,0,0,0,0,0,0,0,0,0,0,0,0,0,0,0,0,0,0,0,0,0,0,0,0,0,0,0,0],"split_type":[0,0,0,0,0,0,0,0,0,0,0,0,0,0,0,0,0,0,0,0,0,0,0,0,0,0,0,0,0,0,0,0,0,0,0,0,0,0,0,0,0,0,0,0,0,0,0,0,0,0,0,0,0,0,0,0,0,0,0,0,0,0,0,0,0,0,0,0,0,0,0,0,0],"sum_hessian":[4.59E2,4.31E2,2.8E1,1.58E2,2.73E2,2.4E1,4E0,1.12E2,4.6E1,2.69E2,4E0,1.1E1,1.3E1,9.4E1,1.8E1,2E0,4.4E1,3.8E1,2.31E2,3E0,1E0,2E0,9E0,5E0,8E0,8.6E1,8E0,1.1E1,7E0,2.1E1,2.3E1,3.4E1,4E0,1.98E2,3.3E1,2E0,1E0,1E0,1E0,8E0,1E0,3E0,2E0,5E0,3E0,6.6E1,2E1,2E0,6E0,3E0,8E0,2E0,5E0,1.5E1,6E0,1.8E1,5E0,1E1,2.4E1,1E0,3E0,1.4E1,1.84E2,2.8E1,5E0,7E0,1E0,1E0,2E0,1E0,4E0,2E0,1E0],"tree_param":{"num_deleted":"0","num_feature":"5","num_nodes":"73","size_leaf_vector":"1"}},{"base_weights":[-1.5161736E-6,-3.7255549E-4,5.525742E-3,7.681872E-4,-1.0331597E-3,3.119356E-3,4.9357576E-4,1.5436166E-3,-1.1124874E-3,-8.694113E-4,-9.66894E-3,7.326921E-3,-7.0993946E-4,7.808386E-4,5.2762637E-3,2.2962026E-4,-1.6721985E-3,-3.753778E-3,-3.807918E-4,-1.23959035E-2,1.8583678E-5,-1.2537185E-4,8.829917E-3,-6.7247236E-3,3.3787987E-3,2.4489753E-3,-3.7421702E-4,6.8331254E-3,2.2814383E-3,-4.9484144E-3,-5.947536E-4,-2.9960456E-3,-8.307148E-3,-5.3283998E-6,-3.7923797E-3,-4.207639E-4,-1.1260829E-4,-8.68196E-5,8.117787E-5,9.721756E-3,1.2050518E-5,-7.007635E-5,-4.0068035E-4,6.2287366E-3,-1.7408074E-3,9.039224E-5,-9.720493E-5,-1.1267655E-4,7.636283E-6,3.242919E-4,1.2919526E-4,-1.9514795E-5,1.0101493E-4,-2.2439663E-4,-1.2440059E-5,-1.5427412E-4,1.57044E-5,-1.4102577E-5,-1.1181203E-4,-1.1143435E-5,-3.0594633E-4,1.1616806E-4,-9.061683E-6,-1.6739625E-4,6.606509E-5,3.1394712E-4,5.664854E-5,2.3947588E-5,-1.8768113E-5,5.357184E-5,2.0280578E-4,-9.6142765E-5,3.9765702E-5],"categories":[],"categories_nodes":[],"categories_segments":[],"categories_sizes":[],"default_left":[0,0,0,0,0,0,0,0,0,0,0,0,0,0,0,0,0,0,0,0,0,0,0,0,0,0,0,0,0,0,0,0,0,0,0,0,0,0,0,0,0,0,0,0,0,0,0,0,0,0,0,0,0,0,0,0,0,0,0,0,0,0,0,0,0,0,0,0,0,0,0,0,0],"id":9,"left_children":[1,3,5,7,9,11,-1,13,15,17,19,21,23,25,27,-1,29,31,33,35,-1,37,39,41,43,45,47,49,51,53,55,57,59,61,63,-1,-1,-1,-1,65,-1,67,-1,69,71,-1,-1,-1,-1,-1,-1,-1,-1,-1,-1,-1,-1,-1,-1,-1,-1,-1,-1,-1,-1,-1,-1,-1,-1,-1,-1,-1,-1],"loss_changes":[9.454405E-4,3.2633994E-4,7.112066E-4,2.3359177E-4,3.7905577E-4,4.08002E-4,0E0,3.1761156E-4,2.4341418E-4,3.7909715E-4,1.479591E-4,1.3551617E-4,3.6702177E-4,1.8396159E-4,7.2998635E-5,0E0,1.5590432E-4,1.0967057E-4,2.971547E-4,3.6864658E-6,0E0,3.1347263E-5,7.1261195E-5,2.6383737E-4,1.4215807E-4,1.3492325E-4,1.2215266E-4,7.4016105E-5,2.7656512E-5,1.2314599E-4,1.8068134E-4,6.2876614E-5,7.124644E-5,2.4279366E-4,2.5873812E-4,0E0,0E0,0E0,0E0,3.2632146E-5,0E0,2.4289131E-6,0E0,2.0957086E-6,2.2203823E-5,0E0,0E0,0E0,0E0,0E0,0E0,0E0,0E0,0E0,0E0,0E0,0E0,0E0,0E0,0E0,0E0,0E0,0E0,0E0,0E0,0E0,0E0,0E0,0E0,0E0,0E0,0E0,0E0],"parents":[2147483647,0,0,1,1,2,2,3,3,4,4,5,5,7,7,8,8,9,9,10,10,11,11,12,12,13,13,14,14,16,16,17,17,18,18,19,19,21,21,22,22,23,23,24,24,25,25,26,26,27,27,28,28,29,29,30,30,31,31,32,32,33,33,34,34,39,39,41,41,43,43,44,44],"right_children":[2,4,6,8,10,12,-1,14,16,18,20,22,24,26,28,-1,30,32,34,36,-1,38,40,42,44,46,48,50,52,54,56,58,60,62,64,-1,-1,-1,-1,66,-1,68,-1,70,72,-1,-1,-1,-1,-1,-1,-1,-1,-1,-1,-1,-1,-1,-1,-1,-1,-1,-1,-1,-1,-1,-1,-1,-1,-1,-1,-1,-1],"split_conditions":[1.4992676E0,-4.1564393E-1,1.0823113E0,1.9851832E-1,1.3598094E0,-8.6317277E-1,4.9357576E-4,-4.509042E-1,-2.0571456E0,-2.2856764E-1,8.6372405E-2,-6.1375755E-1,-6.364201E-1,-3.8736334E-1,-4.4834042E-1,2.2962026E-4,-8.558495E-1,1.1243186E0,1.6155871E0,8.653504E-1,1.8583678E-5,-1.228009E0,8.653504E-1,-7.589034E-1,-1.2529303E-1,-5.918368E-1,-1.075234E0,-5.7668656E-1,-8.9675087E-1,-5.539049E-1,-1.3849057E0,-8.9286435E-1,5.3775324E-3,-1.6096784E-2,2.3971143E-1,-4.207639E-4,-1.1260829E-4,-8.68196E-5,8.117787E-5,-1.0078676E0,1.2050518E-5,-7.7183664E-1,-4.0068035E-4,-6.292743E-1,2.6487823E0,9.039224E-5,-9.720493E-5,-1.1267655E-4,7.636283E-6,3.242919E-4,1.2919526E-4,-1.9514795E-5,1.0101493E-4,-2.2439663E-4,-1.2440059E-5,-1.5427412E-4,1.57044E-5,-1.4102577E-5,-1.1181203E-4,-1.1143435E-5,-3.0594633E-4,1.1616806E-4,-9.061683E-6,-1.6739625E-4,6.606509E-5,3.1394712E-4,5.664854E-5,2.3947588E-5,-1.8768113E-5,5.357184E-5,2.0280578E-4,-9.6142765E-5,3.9765702E-5],"split_indices":[2,1,3,2,2,0,0,0,0,1,0,4,0,4,1,0,4,3,1,3,0,0,3,1,0,0,2,3,3,0,3,2,0,0,2,0,0,0,0,0,0,1,0,0,2,0,0,0,0,0,0,0,0,0,0,0,0,0,0,0,0,0,0,0,0,0,0,0,0,0,0,0,0],"split_type":[0,0,0,0,0,0,0,0,0,0,0,0,0,0,0,0,0,0,0,0,0,0,0,0,0,0,0,0,0,0,0,0,0,0,0,0,0,0,0,0,0,0,0,0,0,0,0,0,0,0,0,0,0,0,0,0,0,0,0,0,0,0,0,0,0,0,0,0,0,0,0,0,0],"sum_hessian":[4.59E2,4.31E2,2.8E1,1.58E2,2.73E2,2.4E1,4E0,1.12E2,4.6E1,2.69E2,4E0,1.1E1,1.3E1,9.4E1,1.8E1,2E0,4.4E1,3.8E1,2.31E2,3E0,1E0,2E0,9E0,5E0,8E0,3.8E1,5.6E1,1.1E1,7E0,1E1,3.4E1,3.4E1,4E0,2.09E2,2.2E1,2E0,1E0,1E0,1E0,8E0,1E0,3E0,2E0,5E0,3E0,3.5E1,3E0,8E0,4.8E1,3E0,8E0,2E0,5E0,6E0,4E0,6E0,2.8E1,8E0,2.6E1,1E0,3E0,1.4E1,1.95E2,1.7E1,5E0,7E0,1E0,1E0,2E0,1E0,4E0,2E0,1E0],"tree_param":{"num_deleted":"0","num_feature":"5","num_nodes":"73","size_leaf_vector":"1"}},{"base_weights":[-1.4697638E-6,-3.6294054E-4,5.383249E-3,-2.4538915E-4,-6.562491E-3,3.2985588E-3,5.2763766E-4,-4.8588245E-5,-3.683014E-3,-1.0125229E-2,-4.684449E-4,7.1385307E-3,6.67758E-6,2.1867336E-4,-1.21843776E-4,-5.4217787E-3,2.1471153E-3,-6.9370144E-5,-3.4501104E-4,-1.866349E-4,3.5228492E-3,-1.234912E-4,8.603284E-3,-6.5888986E-3,3.9633554E-3,2.1319895E-4,-1.3296779E-3,-2.7514785E-4,-3.6952887E-3,1.10059795E-4,-8.190909E-5,1.4022329E-4,1.8304923E-5,-8.55173E-5,7.99602E-5,9.4712805E-3,1.1869761E-5,-6.667922E-5,-3.9266673E-4,-1.0409272E-4,5.1747854E-3,4.492711E-5,-1.460086E-5,-1.3048234E-4,-9.088601E-6,6.642332E-5,-1.6524678E-4,3.05706E-4,5.579881E-5,2.3588376E-5,-1.8392751E-5,1.839583E-4,-3.7237143E-5],"categories":[],"categories_nodes":[],"categories_segments":[],"categories_sizes":[],"default_left":[0,0,0,0,0,0,0,0,0,0,0,0,0,0,0,0,0,0,0,0,0,0,0,0,0,0,0,0,0,0,0,0,0,0,0,0,0,0,0,0,0,0,0,0,0,0,0,0,0,0,0,0,0],"id":10,"left_children":[1,3,5,7,9,11,-1,13,15,17,19,21,23,-1,25,27,29,-1,-1,-1,31,33,35,37,39,41,43,-1,45,-1,-1,-1,-1,-1,-1,47,-1,49,-1,-1,51,-1,-1,-1,-1,-1,-1,-1,-1,-1,-1,-1,-1],"loss_changes":[8.973063E-4,3.1321644E-4,6.79831E-4,2.8734532E-4,1.6894884E-4,3.2861132E-4,0E0,2.1751157E-4,2.447973E-4,2.7126283E-5,1.13759386E-4,1.2870732E-4,4.175627E-4,0E0,1.621539E-4,8.2640734E-5,5.45438E-5,0E0,0E0,0E0,7.2078037E-6,3.0413901E-5,6.749446E-5,2.5349355E-4,1.08002205E-4,2.8299107E-4,2.6842018E-4,0E0,1.62183E-4,0E0,0E0,0E0,0E0,0E0,0E0,3.0294002E-5,0E0,2.3463301E-6,0E0,0E0,6.288152E-5,0E0,0E0,0E0,0E0,0E0,0E0,0E0,0E0,0E0,0E0,0E0,0E0],"parents":[2147483647,0,0,1,1,2,2,3,3,4,4,5,5,7,7,8,8,9,9,10,10,11,11,12,12,14,14,15,15,16,16,20,20,21,21,22,22,23,23,24,24,25,25,26,26,28,28,35,35,37,37,40,40],"right_children":[2,4,6,8,10,12,-1,14,16,18,20,22,24,-1,26,28,30,-1,-1,-1,32,34,36,38,40,42,44,-1,46,-1,-1,-1,-1,-1,-1,48,-1,50,-1,-1,52,-1,-1,-1,-1,-1,-1,-1,-1,-1,-1,-1,-1],"split_conditions":[1.4992676E0,1.3598094E0,1.108101E0,1.6155871E0,-1.181473E-1,-8.6317277E-1,5.2763766E-4,-2.012258E0,2.3971143E-1,-2.012258E0,-1.9729398E-2,-6.1375755E-1,-6.364201E-1,2.1867336E-4,1.8926948E-1,1.6793549E0,3.1143466E-1,-6.9370144E-5,-3.4501104E-4,-1.866349E-4,-2.6320245E-2,-1.228009E0,8.653504E-1,-7.589034E-1,-6.8208385E-1,-4.1564393E-1,-8.558495E-1,-2.7514785E-4,7.227284E-2,1.10059795E-4,-8.190909E-5,1.4022329E-4,1.8304923E-5,-8.55173E-5,7.99602E-5,-1.0078676E0,1.1869761E-5,-7.7183664E-1,-3.9266673E-4,-1.0409272E-4,3.9811078E-1,4.492711E-5,-1.460086E-5,-1.3048234E-4,-9.088601E-6,6.642332E-5,-1.6524678E-4,3.05706E-4,5.579881E-5,2.3588376E-5,-1.8392751E-5,1.839583E-4,-3.7237143E-5],"split_indices":[2,2,3,1,0,0,0,0,2,0,3,4,0,0,2,1,4,0,0,0,0,0,3,1,1,1,4,0,4,0,0,0,0,0,0,0,0,1,0,0,0,0,0,0,0,0,0,0,0,0,0,0,0],"split_type":[0,0,0,0,0,0,0,0,0,0,0,0,0,0,0,0,0,0,0,0,0,0,0,0,0,0,0,0,0,0,0,0,0,0,0,0,0,0,0,0,0,0,0,0,0,0,0,0,0,0,0,0,0],"sum_hessian":[4.59E2,4.31E2,2.8E1,4.24E2,7E0,2.5E1,3E0,4.02E2,2.2E1,4E0,3E0,1.1E1,1.4E1,3E0,3.99E2,1.7E1,5E0,1E0,3E0,1E0,2E0,2E0,9E0,5E0,9E0,3.13E2,8.6E1,4E0,1.3E1,4E0,1E0,1E0,1E0,1E0,1E0,8E0,1E0,3E0,2E0,1E0,8E0,1.1E2,2.03E2,2.1E1,6.5E1,3E0,1E1,7E0,1E0,1E0,2E0,7E0,1E0],"tree_param":{"num_deleted":"0","num_feature":"5","num_nodes":"53","size_leaf_vector":"1"}},{"base_weights":[-1.7045029E-6,-3.5362376E-4,5.240738E-3,-2.3858366E-4,-6.420927E-3,2.9383977E-3,4.711287E-4,-1.5941952E-4,-2.5592264E-4,-9.904349E-3,-4.61418E-4,6.9550257E-3,-7.143119E-4,2.1375321E-4,-2.2858106E-4,-6.832959E-5,-3.3724826E-4,-1.8383538E-4,3.4700066E-3,-1.2163896E-4,8.3825225E-3,-6.4558103E-3,3.1927216E-3,5.9701223E-4,-7.0081773E-4,1.3811994E-4,1.803035E-5,-8.423454E-5,7.8760786E-5,9.227309E-3,1.1691714E-5,-6.3379906E-5,-3.848134E-4,5.9313057E-3,-1.7133347E-3,4.3724376E-5,-5.3672396E-5,-1.0901728E-4,-5.9470576E-6,2.9768122E-4,5.4961827E-5,2.3234552E-5,-1.8024897E-5,7.679253E-5,2.0931434E-4,-9.2806615E-5,3.640984E-5],"categories":[],"categories_nodes":[],"categories_segments":[],"categories_sizes":[],"default_left":[0,0,0,0,0,0,0,0,0,0,0,0,0,0,0,0,0,0,0,0,0,0,0,0,0,0,0,0,0,0,0,0,0,0,0,0,0,0,0,0,0,0,0,0,0,0,0],"id":11,"left_children":[1,3,5,7,9,11,-1,13,-1,15,17,19,21,-1,23,-1,-1,-1,25,27,29,31,33,35,37,-1,-1,-1,-1,39,-1,41,-1,43,45,-1,-1,-1,-1,-1,-1,-1,-1,-1,-1,-1,-1],"loss_changes":[8.505148E-4,2.9999684E-4,6.5248355E-4,2.7762816E-4,1.6150583E-4,3.7175743E-4,0E0,2.142361E-4,0E0,2.538989E-5,1.103722E-4,1.2224272E-4,3.3466276E-4,0E0,1.6377622E-4,0E0,0E0,0E0,6.993192E-6,2.9508325E-5,6.392592E-5,2.4355567E-4,1.3108314E-4,3.1674004E-4,3.928698E-4,0E0,0E0,0E0,0E0,2.8104812E-5,0E0,2.2665758E-6,0E0,3.2968674E-6,1.9914107E-5,0E0,0E0,0E0,0E0,0E0,0E0,0E0,0E0,0E0,0E0,0E0,0E0],"parents":[2147483647,0,0,1,1,2,2,3,3,4,4,5,5,7,7,9,9,10,10,11,11,12,12,14,14,18,18,19,19,20,20,21,21,22,22,23,23,24,24,29,29,31,31,33,33,34,34],"right_children":[2,4,6,8,10,12,-1,14,-1,16,18,20,22,-1,24,-1,-1,-1,26,28,30,32,34,36,38,-1,-1,-1,-1,40,-1,42,-1,44,46,-1,-1,-1,-1,-1,-1,-1,-1,-1,-1,-1,-1],"split_conditions":[1.4992676E0,1.3598094E0,1.0823113E0,1.9524579E0,-1.181473E-1,-8.6317277E-1,4.711287E-4,-2.012258E0,-2.5592264E-4,-2.012258E0,-1.9729398E-2,-6.1375755E-1,-6.364201E-1,2.1375321E-4,-4.1564393E-1,-6.832959E-5,-3.3724826E-4,-1.8383538E-4,-2.6320245E-2,-1.228009E0,8.653504E-1,-7.589034E-1,-1.2529303E-1,1.9851832E-1,-2.2856764E-1,1.3811994E-4,1.803035E-5,-8.423454E-5,7.8760786E-5,-1.0078676E0,1.1691714E-5,-7.7183664E-1,-3.848134E-4,-5.539049E-1,2.6487823E0,4.3724376E-5,-5.3672396E-5,-1.0901728E-4,-5.9470576E-6,2.9768122E-4,5.4961827E-5,2.3234552E-5,-1.8024897E-5,7.679253E-5,2.0931434E-4,-9.2806615E-5,3.640984E-5],"split_indices":[2,2,3,1,0,0,0,0,0,0,3,4,0,0,1,0,0,0,0,0,3,1,0,2,1,0,0,0,0,0,0,1,0,0,2,0,0,0,0,0,0,0,0,0,0,0,0],"split_type":[0,0,0,0,0,0,0,0,0,0,0,0,0,0,0,0,0,0,0,0,0,0,0,0,0,0,0,0,0,0,0,0,0,0,0,0,0,0,0,0,0,0,0,0,0,0,0],"sum_hessian":[4.59E2,4.31E2,2.8E1,4.24E2,7E0,2.4E1,4E0,4.21E2,3E0,4E0,3E0,1.1E1,1.3E1,3E0,4.18E2,1E0,3E0,1E0,2E0,2E0,9E0,5E0,8E0,1.52E2,2.66E2,1E0,1E0,1E0,1E0,8E0,1E0,3E0,2E0,5E0,3E0,1.12E2,4E1,3.8E1,2.28E2,7E0,1E0,1E0,2E0,2E0,3E0,2E0,1E0],"tree_param":{"num_deleted":"0","num_feature":"5","num_nodes":"47","size_leaf_vector":"1"}},{"base_weights":[-1.4800578E-6,-3.444048E-4,5.1069674E-3,-2.3181936E-4,-6.282457E-3,3.105641E-3,1.6838847E-2,-4.191098E-5,-3.5492652E-3,-9.688334E-3,-4.5449688E-4,6.7762802E-3,-3.7913218E-5,5.7240896E-4,1.517174E-4,2.0894376E-4,-1.1187323E-4,-5.2326224E-3,2.0923498E-3,-4.2165417E-4,-1.5248542E-4,-1.8107785E-4,3.4179566E-3,-1.19814336E-4,8.167481E-3,-6.325403E-3,3.7383721E-3,2.0363303E-4,-1.249311E-3,-2.6840155E-4,-3.5324004E-3,1.0756109E-4,-8.059125E-5,1.3604815E-4,1.7759894E-5,-8.2971026E-5,7.757938E-5,8.989672E-3,1.1516338E-5,-6.0176102E-5,-3.7711716E-4,-1.0113923E-4,4.9029263E-3,4.2291525E-5,-1.360851E-5,-1.2564361E-4,-7.5233706E-6,6.506261E-5,-1.585326E-4,2.8986708E-4,5.4137403E-5,2.2886032E-5,-1.7664397E-5,1.7429539E-4,-3.5286484E-5],"categories":[],"categories_nodes":[],"categories_segments":[],"categories_sizes":[],"default_left":[0,0,0,0,0,0,0,0,0,0,0,0,0,0,0,0,0,0,0,0,0,0,0,0,0,0,0,0,0,0,0,0,0,0,0,0,0,0,0,0,0,0,0,0,0,0,0,0,0,0,0,0,0,0,0],"id":12,"left_children":[1,3,5,7,9,11,13,15,17,19,21,23,25,-1,-1,-1,27,29,31,-1,-1,-1,33,35,37,39,41,43,45,-1,47,-1,-1,-1,-1,-1,-1,49,-1,51,-1,-1,53,-1,-1,-1,-1,-1,-1,-1,-1,-1,-1,-1,-1],"loss_changes":[8.0759294E-4,2.873522E-4,6.2860484E-4,2.6760585E-4,1.5439116E-4,3.002671E-4,9.137788E-6,1.9833169E-4,2.2937602E-4,2.9116229E-5,1.0708587E-4,1.16104784E-4,3.7979704E-4,0E0,0E0,0E0,1.438019E-4,8.206279E-5,5.244003E-5,0E0,0E0,0E0,6.7849687E-6,2.8629715E-5,6.0545164E-5,2.3400797E-4,9.932535E-5,2.4954698E-4,2.5425077E-4,0E0,1.5130006E-4,0E0,0E0,0E0,0E0,0E0,0E0,2.605567E-5,0E0,2.189553E-6,0E0,0E0,5.6453282E-5,0E0,0E0,0E0,0E0,0E0,0E0,0E0,0E0,0E0,0E0,0E0,0E0],"parents":[2147483647,0,0,1,1,2,2,3,3,4,4,5,5,6,6,7,7,8,8,9,9,10,10,11,11,12,12,16,16,17,17,18,18,22,22,23,23,24,24,25,25,26,26,27,27,28,28,30,30,37,37,39,39,42,42],"right_children":[2,4,6,8,10,12,14,16,18,20,22,24,26,-1,-1,-1,28,30,32,-1,-1,-1,34,36,38,40,42,44,46,-1,48,-1,-1,-1,-1,-1,-1,50,-1,52,-1,-1,54,-1,-1,-1,-1,-1,-1,-1,-1,-1,-1,-1,-1],"split_conditions":[1.4992676E0,1.3598094E0,1.108101E0,1.6155871E0,-1.181473E-1,-8.6317277E-1,1.4252943E0,-2.012258E0,2.3971143E-1,1.4001731E0,-1.9729398E-2,-6.1375755E-1,-6.364201E-1,5.7240896E-4,1.517174E-4,2.0894376E-4,1.8926948E-1,1.6793549E0,3.1143466E-1,-4.2165417E-4,-1.5248542E-4,-1.8107785E-4,-2.6320245E-2,-1.228009E0,8.653504E-1,-7.589034E-1,-6.8208385E-1,-4.1564393E-1,-8.558495E-1,-2.6840155E-4,7.227284E-2,1.0756109E-4,-8.059125E-5,1.3604815E-4,1.7759894E-5,-8.2971026E-5,7.757938E-5,-1.0078676E0,1.1516338E-5,-7.7183664E-1,-3.7711716E-4,-1.0113923E-4,3.9811078E-1,4.2291525E-5,-1.360851E-5,-1.2564361E-4,-7.5233706E-6,6.506261E-5,-1.585326E-4,2.8986708E-4,5.4137403E-5,2.2886032E-5,-1.7664397E-5,1.7429539E-4,-3.5286484E-5],"split_indices":[2,2,3,1,0,0,3,0,2,2,3,4,0,0,0,0,2,1,4,0,0,0,0,0,3,1,1,1,4,0,4,0,0,0,0,0,0,0,0,1,0,0,0,0,0,0,0,0,0,0,0,0,0,0,0],"split_type":[0,0,0,0,0,0,0,0,0,0,0,0,0,0,0,0,0,0,0,0,0,0,0,0,0,0,0,0,0,0,0,0,0,0,0,0,0,0,0,0,0,0,0,0,0,0,0,0,0,0,0,0,0,0,0],"sum_hessian":[4.59E2,4.31E2,2.8E1,4.24E2,7E0,2.5E1,3E0,4.02E2,2.2E1,4E0,3E0,1.1E1,1.4E1,2E0,1E0,3E0,3.99E2,1.7E1,5E0,1E0,3E0,1E0,2E0,2E0,9E0,5E0,9E0,3.13E2,8.6E1,4E0,1.3E1,4E0,1E0,1E0,1E0,1E0,1E0,8E0,1E0,3E0,2E0,1E0,8E0,1.1E2,2.03E2,2.1E1,6.5E1,3E0,1E1,7E0,1E0,1E0,2E0,7E0,1E0],"tree_param":{"num_deleted":"0","num_feature":"5","num_nodes":"55","size_leaf_vector":"1"}},{"base_weights":[-1.6348237E-6,-3.3599825E-4,4.9792835E-3,-2.2540697E-4,-6.16916E-3,3.0130912E-3,1.6514715E-2,-1.4909552E-4,-2.465974E-4,-9.512512E-3,-4.4767925E-4,6.6021695E-3,-5.9044276E-5,5.609608E-4,1.4944164E-4,2.0424253E-4,-2.1515667E-4,-4.1532938E-4,-1.490545E-4,-1.7836168E-4,3.366687E-3,-1.180172E-4,7.958008E-3,-6.197624E-3,3.6300079E-3,5.584167E-4,-6.5763446E-4,1.3400742E-4,1.7493496E-5,-8.172646E-5,7.641569E-5,8.758205E-3,1.13435935E-5,-5.7065427E-5,-3.6957482E-4,-9.962214E-5,4.771284E-3,4.1193183E-5,-5.1017007E-5,-1.0531196E-4,-5.067622E-6,9.650994E-5,2.9645505E-4,2.2542741E-5,-1.7311111E-5,1.6972012E-4,-3.4757188E-5],"categories":[],"categories_nodes":[],"categories_segments":[],"categories_sizes":[],"default_left":[0,0,0,0,0,0,0,0,0,0,0,0,0,0,0,0,0,0,0,0,0,0,0,0,0,0,0,0,0,0,0,0,0,0,0,0,0,0,0,0,0,0,0,0,0,0,0],"id":13,"left_children":[1,3,5,7,9,11,13,15,-1,17,19,21,23,-1,-1,-1,25,-1,-1,-1,27,29,31,33,35,37,39,-1,-1,-1,-1,41,-1,43,-1,-1,45,-1,-1,-1,-1,-1,-1,-1,-1,-1,-1],"loss_changes":[7.67774E-4,2.772912E-4,6.079851E-4,2.580552E-4,1.4877287E-4,2.8706924E-4,7.6086726E-6,1.9541572E-4,0E0,2.9633899E-5,1.03897386E-4,1.1027715E-4,3.6218055E-4,0E0,0E0,0E0,1.4378634E-4,0E0,0E0,0E0,6.582948E-6,2.7777265E-5,5.7342346E-5,2.2483493E-4,9.51714E-5,2.8391168E-4,3.716544E-4,0E0,0E0,0E0,0E0,2.4246576E-5,0E0,2.1151677E-6,0E0,0E0,5.3842E-5,0E0,0E0,0E0,0E0,0E0,0E0,0E0,0E0,0E0,0E0],"parents":[2147483647,0,0,1,1,2,2,3,3,4,4,5,5,6,6,7,7,9,9,10,10,11,11,12,12,16,16,20,20,21,21,22,22,23,23,24,24,25,25,26,26,31,31,33,33,36,36],"right_children":[2,4,6,8,10,12,14,16,-1,18,20,22,24,-1,-1,-1,26,-1,-1,-1,28,30,32,34,36,38,40,-1,-1,-1,-1,42,-1,44,-1,-1,46,-1,-1,-1,-1,-1,-1,-1,-1,-1,-1],"split_conditions":[1.4992676E0,1.3598094E0,1.108101E0,1.9524579E0,-1.181473E-1,-8.6317277E-1,1.4252943E0,-2.012258E0,-2.465974E-4,1.4001731E0,-1.9729398E-2,-6.1375755E-1,-6.364201E-1,5.609608E-4,1.4944164E-4,2.0424253E-4,-4.1564393E-1,-4.1532938E-4,-1.490545E-4,-1.7836168E-4,-2.6320245E-2,-1.228009E0,8.653504E-1,-7.589034E-1,-6.8208385E-1,1.9851832E-1,-2.2856764E-1,1.3400742E-4,1.7493496E-5,-8.172646E-5,7.641569E-5,-9.3458766E-1,1.13435935E-5,-7.7183664E-1,-3.6957482E-4,-9.962214E-5,3.9811078E-1,4.1193183E-5,-5.1017007E-5,-1.0531196E-4,-5.067622E-6,9.650994E-5,2.9645505E-4,2.2542741E-5,-1.7311111E-5,1.6972012E-4,-3.4757188E-5],"split_indices":[2,2,3,1,0,0,3,0,0,2,3,4,0,0,0,0,1,0,0,0,0,0,3,1,1,2,1,0,0,0,0,1,0,1,0,0,0,0,0,0,0,0,0,0,0,0,0],"split_type":[0,0,0,0,0,0,0,0,0,0,0,0,0,0,0,0,0,0,0,0,0,0,0,0,0,0,0,0,0,0,0,0,0,0,0,0,0,0,0,0,0,0,0,0,0,0,0],"sum_hessian":[4.59E2,4.31E2,2.8E1,4.24E2,7E0,2.5E1,3E0,4.21E2,3E0,4E0,3E0,1.1E1,1.4E1,2E0,1E0,3E0,4.18E2,1E0,3E0,1E0,2E0,2E0,9E0,5E0,9E0,1.52E2,2.66E2,1E0,1E0,1E0,1E0,8E0,1E0,3E0,2E0,1E0,8E0,1.12E2,4E1,3.8E1,2.28E2,2E0,6E0,1E0,2E0,7E0,1E0],"tree_param":{"num_deleted":"0","num_feature":"5","num_nodes":"47","size_leaf_vector":"1"}},{"base_weights":[-1.5279558E-6,-3.276632E-4,4.8568156E-3,-2.1902725E-4,-6.0579902E-3,2.9253904E-3,1.6196873E-2,7.1284494E-6,-2.8200275E-3,-9.340013E-3,-4.4096407E-4,6.726335E-3,1.2940443E-4,5.4974156E-4,1.4720001E-4,1.9964707E-4,-6.124745E-5,-3.7279557E-3,2.0382972E-3,-4.0909942E-4,-1.4570077E-4,-1.7568625E-4,3.3161868E-3,-1.16246905E-4,8.2598245E-3,-4.739421E-3,3.5246417E-3,-2.3376953E-4,2.3564175E-3,-1.4331667E-3,-5.0507067E-3,1.05101244E-4,-7.930637E-5,1.3199731E-4,1.7231094E-5,-8.050056E-5,7.5269454E-5,9.199191E-3,1.117344E-5,-9.454418E-3,1.1604314E-3,-9.812781E-5,4.6431413E-3,1.6248E-5,-2.3767487E-5,3.7594372E-4,4.3444725E-5,7.7135424E-5,-7.4734635E-5,-2.618383E-4,-1.0129928E-4,9.457974E-5,3.2067776E-4,-2.3990102E-5,-3.6218332E-4,4.7388745E-5,-1.4572321E-6,1.6526498E-4,-3.423583E-5],"categories":[],"categories_nodes":[],"categories_segments":[],"categories_sizes":[],"default_left":[0,0,0,0,0,0,0,0,0,0,0,0,0,0,0,0,0,0,0,0,0,0,0,0,0,0,0,0,0,0,0,0,0,0,0,0,0,0,0,0,0,0,0,0,0,0,0,0,0,0,0,0,0,0,0,0,0,0,0],"id":14,"left_children":[1,3,5,7,9,11,13,15,17,19,21,23,25,-1,-1,-1,27,29,31,-1,-1,-1,33,35,37,39,41,43,45,47,49,-1,-1,-1,-1,-1,-1,51,-1,53,55,-1,57,-1,-1,-1,-1,-1,-1,-1,-1,-1,-1,-1,-1,-1,-1,-1,-1],"loss_changes":[7.3045085E-4,2.676016E-4,5.8778946E-4,2.5001826E-4,1.4336308E-4,2.7544162E-4,6.182003E-6,1.7859021E-4,1.5757303E-4,3.0086929E-5,1.00803845E-4,1.1638348E-4,2.8119783E-4,0E0,0E0,0E0,1.6280299E-4,8.078906E-5,5.0416907E-5,0E0,0E0,0E0,6.386941E-6,2.6950198E-5,6.325601E-5,2.056957E-4,9.119579E-5,1.580514E-4,2.2213359E-4,5.7243808E-5,8.133557E-5,0E0,0E0,0E0,0E0,0E0,0E0,3.8378348E-5,0E0,8.099072E-5,2.1039582E-6,0E0,5.1353694E-5,0E0,0E0,0E0,0E0,0E0,0E0,0E0,0E0,0E0,0E0,0E0,0E0,0E0,0E0,0E0,0E0],"parents":[2147483647,0,0,1,1,2,2,3,3,4,4,5,5,6,6,7,7,8,8,9,9,10,10,11,11,12,12,16,16,17,17,18,18,22,22,23,23,24,24,25,25,26,26,27,27,28,28,29,29,30,30,37,37,39,39,40,40,42,42],"right_children":[2,4,6,8,10,12,14,16,18,20,22,24,26,-1,-1,-1,28,30,32,-1,-1,-1,34,36,38,40,42,44,46,48,50,-1,-1,-1,-1,-1,-1,52,-1,54,56,-1,58,-1,-1,-1,-1,-1,-1,-1,-1,-1,-1,-1,-1,-1,-1,-1,-1],"split_conditions":[1.4992676E0,1.3598094E0,1.108101E0,1.5230999E0,-1.181473E-1,-8.802762E-1,1.4252943E0,-2.012258E0,2.3971143E-1,1.4001731E0,-1.9729398E-2,-6.1375755E-1,-6.364201E-1,5.4974156E-4,1.4720001E-4,1.9964707E-4,1.3041285E0,1.6155871E0,3.1143466E-1,-4.0909942E-4,-1.4570077E-4,-1.7568625E-4,-2.6320245E-2,-1.228009E0,8.653504E-1,-2.654601E-1,-6.8208385E-1,-4.1564393E-1,-1.5444883E0,-5.5410254E-1,1.6793549E0,1.05101244E-4,-7.930637E-5,1.3199731E-4,1.7231094E-5,-8.050056E-5,7.5269454E-5,-9.3458766E-1,1.117344E-5,-7.589034E-1,2.8223114E0,-9.812781E-5,3.9811078E-1,1.6248E-5,-2.3767487E-5,3.7594372E-4,4.3444725E-5,7.7135424E-5,-7.4734635E-5,-2.618383E-4,-1.0129928E-4,9.457974E-5,3.2067776E-4,-2.3990102E-5,-3.6218332E-4,4.7388745E-5,-1.4572321E-6,1.6526498E-4,-3.423583E-5],"split_indices":[2,2,3,1,0,0,3,0,2,2,3,4,0,0,0,0,1,1,4,0,0,0,0,0,3,3,1,1,4,2,1,0,0,0,0,0,0,1,0,1,2,0,0,0,0,0,0,0,0,0,0,0,0,0,0,0,0,0,0],"split_type":[0,0,0,0,0,0,0,0,0,0,0,0,0,0,0,0,0,0,0,0,0,0,0,0,0,0,0,0,0,0,0,0,0,0,0,0,0,0,0,0,0,0,0,0,0,0,0,0,0,0,0,0,0,0,0,0,0,0,0],"sum_hessian":[4.59E2,4.31E2,2.8E1,4.24E2,7E0,2.5E1,3E0,3.91E2,3.3E1,4E0,3E0,1E1,1.5E1,2E0,1E0,3E0,3.88E2,2.8E1,5E0,1E0,3E0,1E0,2E0,2E0,8E0,6E0,9E0,3.63E2,2.5E1,1.1E1,1.7E1,4E0,1E0,1E0,1E0,1E0,1E0,7E0,1E0,3E0,3E0,1E0,8E0,1.52E2,2.11E2,1E0,2.4E1,2E0,9E0,4E0,1.3E1,2E0,5E0,1E0,2E0,2E0,1E0,7E0,1E0],"tree_param":{"num_deleted":"0","num_feature":"5","num_nodes":"59","size_leaf_vector":"1"}},{"base_weights":[-3.8183032E-7,-3.1853857E-4,4.7390694E-3,-2.1180563E-4,-5.948908E-3,2.842008E-3,1.5885202E-2,-1.378707E-4,-2.3876973E-4,-4.0296293E-4,-2.9610095E-3,6.5628355E-3,1.0631354E-4,5.3874677E-4,1.44992E-4,1.9515501E-4,-2.0095966E-4,-1.8195965E-4,8.8355504E-4,-1.14503164E-4,8.059411E-3,-4.645844E-3,3.4221925E-3,-7.422723E-5,-2.5993064E-3,-9.397668E-5,3.2664442E-3,-7.929305E-5,7.4140415E-5,8.975122E-3,1.1005838E-5,-9.267328E-3,1.1371013E-3,-9.66559E-5,4.518406E-3,7.3401147E-6,-3.4231034E-5,-9.365084E-6,-1.3950428E-4,1.3001736E-4,1.6972626E-5,9.268815E-5,3.126608E-4,-2.3630251E-5,-3.5493964E-4,4.6440968E-5,-1.4353736E-6,1.6092676E-4,-3.3722295E-5],"categories":[],"categories_nodes":[],"categories_segments":[],"categories_sizes":[],"default_left":[0,0,0,0,0,0,0,0,0,0,0,0,0,0,0,0,0,0,0,0,0,0,0,0,0,0,0,0,0,0,0,0,0,0,0,0,0,0,0,0,0,0,0,0,0,0,0,0,0],"id":15,"left_children":[1,3,5,7,9,11,13,15,-1,-1,17,19,21,-1,-1,-1,23,-1,25,27,29,31,33,35,37,-1,39,-1,-1,41,-1,43,45,-1,47,-1,-1,-1,-1,-1,-1,-1,-1,-1,-1,-1,-1,-1,-1],"loss_changes":[6.951383E-4,2.5834856E-4,5.680562E-4,2.4233745E-4,1.3909955E-4,2.639575E-4,4.852074E-6,1.7816851E-4,0E0,0E0,8.8902154E-5,1.1084744E-4,2.6802026E-4,0E0,0E0,0E0,1.2716139E-4,0E0,4.851211E-5,2.6147754E-5,6.0104707E-5,1.9761843E-4,8.7390705E-5,1.3601994E-4,9.704979E-5,0E0,6.1967694E-6,0E0,0E0,3.5926292E-5,0E0,7.764783E-5,2.0217926E-6,0E0,4.8982518E-5,0E0,0E0,0E0,0E0,0E0,0E0,0E0,0E0,0E0,0E0,0E0,0E0,0E0,0E0],"parents":[2147483647,0,0,1,1,2,2,3,3,4,4,5,5,6,6,7,7,10,10,11,11,12,12,16,16,18,18,19,19,20,20,21,21,22,22,23,23,24,24,26,26,29,29,31,31,32,32,34,34],"right_children":[2,4,6,8,10,12,14,16,-1,-1,18,20,22,-1,-1,-1,24,-1,26,28,30,32,34,36,38,-1,40,-1,-1,42,-1,44,46,-1,48,-1,-1,-1,-1,-1,-1,-1,-1,-1,-1,-1,-1,-1,-1],"split_conditions":[1.4992676E0,1.3598094E0,1.108101E0,1.9524579E0,-1.4964763E0,-8.802762E-1,1.4252943E0,-2.012258E0,-2.3876973E-4,-4.0296293E-4,-1.9729398E-2,-6.1375755E-1,-6.364201E-1,5.3874677E-4,1.44992E-4,1.9515501E-4,1.705733E0,-1.8195965E-4,-1.181473E-1,-1.228009E0,8.653504E-1,-2.654601E-1,-6.8208385E-1,1.8926948E-1,1.6565545E-1,-9.397668E-5,-2.6320245E-2,-7.929305E-5,7.4140415E-5,-9.3458766E-1,1.1005838E-5,-7.589034E-1,2.8223114E0,-9.66559E-5,3.9811078E-1,7.3401147E-6,-3.4231034E-5,-9.365084E-6,-1.3950428E-4,1.3001736E-4,1.6972626E-5,9.268815E-5,3.126608E-4,-2.3630251E-5,-3.5493964E-4,4.6440968E-5,-1.4353736E-6,1.6092676E-4,-3.3722295E-5],"split_indices":[2,2,3,1,4,0,3,0,0,0,3,4,0,0,0,0,4,0,0,0,3,3,1,2,0,0,0,0,0,1,0,1,2,0,0,0,0,0,0,0,0,0,0,0,0,0,0,0,0],"split_type":[0,0,0,0,0,0,0,0,0,0,0,0,0,0,0,0,0,0,0,0,0,0,0,0,0,0,0,0,0,0,0,0,0,0,0,0,0,0,0,0,0,0,0,0,0,0,0,0,0],"sum_hessian":[4.59E2,4.31E2,2.8E1,4.24E2,7E0,2.5E1,3E0,4.21E2,3E0,1E0,6E0,1E1,1.5E1,2E0,1E0,3E0,4.18E2,3E0,3E0,2E0,8E0,6E0,9E0,3.98E2,2E1,1E0,2E0,1E0,1E0,7E0,1E0,3E0,3E0,1E0,8E0,3.07E2,9.1E1,1E1,1E1,1E0,1E0,2E0,5E0,1E0,2E0,2E0,1E0,7E0,1E0],"tree_param":{"num_deleted":"0","num_feature":"5","num_nodes":"49","size_leaf_vector":"1"}},{"base_weights":[-2.8206588E-7,-3.1072155E-4,4.624205E-3,-2.0596769E-4,-5.836929E-3,2.7609088E-3,1.557958E-2,2.2696715E-5,-2.6044673E-3,-3.969185E-4,-2.8906001E-3,6.1334497E-3,-1.211843E-4,5.279718E-4,1.4281712E-4,-1.5022005E-4,2.78086E-3,-3.3882852E-3,2.0099732E-3,-1.7786556E-4,8.703018E-4,-1.1278549E-4,7.3939753E-3,-5.840597E-3,3.322582E-3,6.8459124E-4,-7.638066E-4,3.7019447E-4,1.7854613E-3,-1.3911357E-3,-4.8643383E-3,1.0340036E-4,-7.7603305E-5,-9.2567025E-5,3.2174475E-3,-7.810366E-5,7.3028306E-5,8.135226E-3,1.0840751E-5,-6.487478E-5,-3.4784083E-4,-9.520606E-5,4.3969876E-3,5.684177E-6,8.823671E-5,-1.0109895E-4,-5.2583364E-6,1.0593626E-4,-8.439155E-6,-6.6288674E-5,4.2363237E-5,-2.5484926E-4,-9.6606884E-5,1.280671E-4,1.6718037E-5,2.626961E-4,4.747107E-5,2.0797153E-5,-1.6459759E-5,1.5670244E-4,-3.321646E-5],"categories":[],"categories_nodes":[],"categories_segments":[],"categories_sizes":[],"default_left":[0,0,0,0,0,0,0,0,0,0,0,0,0,0,0,0,0,0,0,0,0,0,0,0,0,0,0,0,0,0,0,0,0,0,0,0,0,0,0,0,0,0,0,0,0,0,0,0,0,0,0,0,0,0,0,0,0,0,0,0,0],"id":16,"left_children":[1,3,5,7,9,11,13,15,17,-1,19,21,23,-1,-1,25,27,29,31,-1,33,35,37,39,41,43,45,-1,47,49,51,-1,-1,-1,53,-1,-1,55,-1,57,-1,-1,59,-1,-1,-1,-1,-1,-1,-1,-1,-1,-1,-1,-1,-1,-1,-1,-1,-1,-1],"loss_changes":[6.618236E-4,2.4887893E-4,5.4896635E-4,2.3315096E-4,1.360295E-4,2.5346267E-4,3.6135316E-6,1.8594455E-4,1.4063498E-4,0E0,8.514585E-5,9.531644E-5,3.1485068E-4,0E0,0E0,1.8851091E-4,1.9681209E-4,8.756583E-5,4.8540838E-5,0E0,4.706766E-5,2.5369205E-5,4.9189606E-5,1.986522E-4,8.374864E-5,1.7374166E-4,3.2457474E-4,0E0,8.037049E-5,3.7536483E-5,8.008914E-5,0E0,0E0,0E0,6.0122584E-6,0E0,0E0,2.2786204E-5,0E0,1.8474032E-6,0E0,0E0,4.6722867E-5,0E0,0E0,0E0,0E0,0E0,0E0,0E0,0E0,0E0,0E0,0E0,0E0,0E0,0E0,0E0,0E0,0E0,0E0],"parents":[2147483647,0,0,1,1,2,2,3,3,4,4,5,5,6,6,7,7,8,8,10,10,11,11,12,12,15,15,16,16,17,17,18,18,20,20,21,21,22,22,23,23,24,24,25,25,26,26,28,28,29,29,30,30,34,34,37,37,39,39,42,42],"right_children":[2,4,6,8,10,12,14,16,18,-1,20,22,24,-1,-1,26,28,30,32,-1,34,36,38,40,42,44,46,-1,48,50,52,-1,-1,-1,54,-1,-1,56,-1,58,-1,-1,60,-1,-1,-1,-1,-1,-1,-1,-1,-1,-1,-1,-1,-1,-1,-1,-1,-1,-1],"split_conditions":[1.4992676E0,1.3598094E0,1.108101E0,1.5025727E0,-1.4964763E0,-8.6317277E-1,1.4252943E0,1.3041285E0,2.3971143E-1,-3.969185E-4,-1.9729398E-2,-6.1375755E-1,-6.364201E-1,5.279718E-4,1.4281712E-4,-4.1564393E-1,-1.5444883E0,1.6155871E0,3.1143466E-1,-1.7786556E-4,-1.181473E-1,-1.228009E0,8.653504E-1,-7.589034E-1,-6.8208385E-1,-5.7775027E-1,-2.2856764E-1,3.7019447E-4,1.3522168E0,1.5999082E0,1.6793549E0,1.0340036E-4,-7.7603305E-5,-9.2567025E-5,-2.6320245E-2,-7.810366E-5,7.3028306E-5,-1.0078676E0,1.0840751E-5,-7.7183664E-1,-3.4784083E-4,-9.520606E-5,3.9811078E-1,5.684177E-6,8.823671E-5,-1.0109895E-4,-5.2583364E-6,1.0593626E-4,-8.439155E-6,-6.6288674E-5,4.2363237E-5,-2.5484926E-4,-9.6606884E-5,1.280671E-4,1.6718037E-5,2.626961E-4,4.747107E-5,2.0797153E-5,-1.6459759E-5,1.5670244E-4,-3.321646E-5],"split_indices":[2,2,3,1,4,0,3,1,2,0,3,4,0,0,0,1,4,1,4,0,0,0,3,1,1,1,1,0,0,1,1,0,0,0,0,0,0,0,0,1,0,0,0,0,0,0,0,0,0,0,0,0,0,0,0,0,0,0,0,0,0],"split_type":[0,0,0,0,0,0,0,0,0,0,0,0,0,0,0,0,0,0,0,0,0,0,0,0,0,0,0,0,0,0,0,0,0,0,0,0,0,0,0,0,0,0,0,0,0,0,0,0,0,0,0,0,0,0,0,0,0,0,0,0,0],"sum_hessian":[4.59E2,4.31E2,2.8E1,4.24E2,7E0,2.5E1,3E0,3.88E2,3.6E1,1E0,6E0,1.1E1,1.4E1,2E0,1E0,3.66E2,2.2E1,3.1E1,5E0,3E0,3E0,2E0,9E0,5E0,9E0,1.55E2,2.11E2,1E0,2.1E1,1.4E1,1.7E1,4E0,1E0,1E0,2E0,1E0,1E0,8E0,1E0,3E0,2E0,1E0,8E0,1.28E2,2.7E1,3.8E1,1.73E2,1.1E1,1E1,1.1E1,3E0,4E0,1.3E1,1E0,1E0,7E0,1E0,1E0,2E0,7E0,1E0],"tree_param":{"num_deleted":"0","num_feature":"5","num_nodes":"61","size_leaf_vector":"1"}},{"base_weights":[2.7989017E-7,-3.023649E-4,4.508634E-3,-1.9954001E-4,-5.7271426E-3,2.6781089E-3,1.5279891E-2,-1.2790205E-4,-2.3122375E-4,-3.9096473E-4,-2.8218322E-3,5.9757736E-3,-1.3856379E-4,5.174124E-4,1.4067488E-4,1.9063613E-4,-1.8948167E-4,-1.7386359E-4,8.5724704E-4,-1.110939E-4,7.2042565E-3,-5.7226303E-3,3.2257324E-3,-9.309519E-5,-3.1925444E-3,-9.1178525E-5,3.1691855E-3,-7.6932105E-5,7.1932875E-5,7.925632E-3,1.0678139E-5,-6.184417E-5,-3.4088403E-4,-9.377797E-5,4.2787986E-3,1.140457E-6,-7.5145195E-5,-1.7041778E-4,-4.3667038E-5,1.2614607E-4,1.6467266E-5,8.558046E-5,2.6902562E-4,2.0485197E-5,-1.6130563E-5,1.5258901E-4,-3.2718213E-5],"categories":[],"categories_nodes":[],"categories_segments":[],"categories_sizes":[],"default_left":[0,0,0,0,0,0,0,0,0,0,0,0,0,0,0,0,0,0,0,0,0,0,0,0,0,0,0,0,0,0,0,0,0,0,0,0,0,0,0,0,0,0,0,0,0,0,0],"id":17,"left_children":[1,3,5,7,9,11,13,15,-1,-1,17,19,21,-1,-1,-1,23,-1,25,27,29,31,33,35,37,-1,39,-1,-1,41,-1,43,-1,-1,45,-1,-1,-1,-1,-1,-1,-1,-1,-1,-1,-1,-1],"loss_changes":[6.29001E-4,2.3982779E-4,5.3087354E-4,2.2760124E-4,1.3301213E-4,2.4232756E-4,2.4614856E-6,1.696606E-4,0E0,0E0,8.154944E-5,9.0531685E-5,3.0025645E-4,0E0,0E0,0E0,1.20984296E-4,0E0,4.5666216E-5,2.4613835E-5,4.6581088E-5,1.908641E-4,8.026248E-5,1.2879059E-4,4.7913374E-5,0E0,5.8332444E-6,0E0,0E0,2.1987536E-5,0E0,1.7845589E-6,0E0,0E0,4.4569388E-5,0E0,0E0,0E0,0E0,0E0,0E0,0E0,0E0,0E0,0E0,0E0,0E0],"parents":[2147483647,0,0,1,1,2,2,3,3,4,4,5,5,6,6,7,7,10,10,11,11,12,12,16,16,18,18,19,19,20,20,21,21,22,22,23,23,24,24,26,26,29,29,31,31,34,34],"right_children":[2,4,6,8,10,12,14,16,-1,-1,18,20,22,-1,-1,-1,24,-1,26,28,30,32,34,36,38,-1,40,-1,-1,42,-1,44,-1,-1,46,-1,-1,-1,-1,-1,-1,-1,-1,-1,-1,-1,-1],"split_conditions":[1.4992676E0,1.3598094E0,1.108101E0,1.9524579E0,-1.4964763E0,-8.6317277E-1,1.4252943E0,-2.012258E0,-2.3122375E-4,-3.9096473E-4,-1.9729398E-2,-6.1375755E-1,-6.364201E-1,5.174124E-4,1.4067488E-4,1.9063613E-4,1.5295982E0,-1.7386359E-4,-1.181473E-1,-1.228009E0,8.653504E-1,-7.589034E-1,-6.8208385E-1,1.705733E0,-6.2538517E-1,-9.1178525E-5,-2.6320245E-2,-7.6932105E-5,7.1932875E-5,-9.3458766E-1,1.0678139E-5,-7.7183664E-1,-3.4088403E-4,-9.377797E-5,3.9811078E-1,1.140457E-6,-7.5145195E-5,-1.7041778E-4,-4.3667038E-5,1.2614607E-4,1.6467266E-5,8.558046E-5,2.6902562E-4,2.0485197E-5,-1.6130563E-5,1.5258901E-4,-3.2718213E-5],"split_indices":[2,2,3,1,4,0,3,0,0,0,3,4,0,0,0,0,0,0,0,0,3,1,1,4,2,0,0,0,0,1,0,1,0,0,0,0,0,0,0,0,0,0,0,0,0,0,0],"split_type":[0,0,0,0,0,0,0,0,0,0,0,0,0,0,0,0,0,0,0,0,0,0,0,0,0,0,0,0,0,0,0,0,0,0,0,0,0,0,0,0,0,0,0,0,0,0,0],"sum_hessian":[4.59E2,4.31E2,2.8E1,4.24E2,7E0,2.5E1,3E0,4.21E2,3E0,1E0,6E0,1.1E1,1.4E1,2E0,1E0,3E0,4.18E2,3E0,3E0,2E0,9E0,5E0,9E0,4.06E2,1.2E1,1E0,2E0,1E0,1E0,8E0,1E0,3E0,2E0,1E0,8E0,3.86E2,2E1,4E0,8E0,1E0,1E0,2E0,6E0,1E0,2E0,7E0,1E0],"tree_param":{"num_deleted":"0","num_feature":"5","num_nodes":"47","size_leaf_vector":"1"}},{"base_weights":[-2.0069526E-8,-2.9524317E-4,4.3977867E-3,-1.9432713E-4,-5.619502E-3,2.599683E-3,1.4986016E-2,-1.2429588E-4,-2.2602122E-4,-3.8510025E-4,-2.7546668E-3,6.097277E-3,3.2606382E-5,5.070641E-4,1.3856476E-4,1.8634682E-4,-1.8448474E-4,-1.6995166E-4,8.443883E-4,-1.09427296E-4,7.488704E-3,-4.399142E-3,3.1315698E-3,5.139135E-4,-5.8399956E-4,-8.981085E-5,3.1216478E-3,-7.5778116E-5,7.085389E-5,8.337142E-3,1.0517967E-5,-8.731442E-3,1.0329426E-3,-9.2371294E-5,4.1637537E-3,3.885235E-5,-4.9547627E-5,-9.8001045E-5,-3.7370985E-6,1.2425389E-4,1.6220258E-5,8.386884E-5,2.9155126E-4,-2.2786942E-5,-3.3406637E-4,4.193436E-5,-9.2498817E-7,1.4858355E-4,-3.222744E-5],"categories":[],"categories_nodes":[],"categories_segments":[],"categories_sizes":[],"default_left":[0,0,0,0,0,0,0,0,0,0,0,0,0,0,0,0,0,0,0,0,0,0,0,0,0,0,0,0,0,0,0,0,0,0,0,0,0,0,0,0,0,0,0,0,0,0,0,0,0],"id":18,"left_children":[1,3,5,7,9,11,13,15,-1,-1,17,19,21,-1,-1,-1,23,-1,25,27,29,31,33,35,37,-1,39,-1,-1,41,-1,43,45,-1,47,-1,-1,-1,-1,-1,-1,-1,-1,-1,-1,-1,-1,-1,-1],"loss_changes":[5.9853215E-4,2.3102292E-4,5.131645E-4,2.1751749E-4,1.3004732E-4,2.3324457E-4,1.3911631E-6,1.6207476E-4,0E0,0E0,7.810605E-5,9.581735E-5,2.3351745E-4,0E0,0E0,0E0,1.1720969E-4,0E0,4.4306504E-5,2.3880959E-5,5.1583163E-5,1.7375297E-4,7.692534E-5,2.6095577E-4,3.2867395E-4,0E0,5.659562E-6,0E0,0E0,3.4063996E-5,0E0,6.82027E-5,1.5956557E-6,0E0,4.251703E-5,0E0,0E0,0E0,0E0,0E0,0E0,0E0,0E0,0E0,0E0,0E0,0E0,0E0,0E0],"parents":[2147483647,0,0,1,1,2,2,3,3,4,4,5,5,6,6,7,7,10,10,11,11,12,12,16,16,18,18,19,19,20,20,21,21,22,22,23,23,24,24,26,26,29,29,31,31,32,32,34,34],"right_children":[2,4,6,8,10,12,14,16,-1,-1,18,20,22,-1,-1,-1,24,-1,26,28,30,32,34,36,38,-1,40,-1,-1,42,-1,44,46,-1,48,-1,-1,-1,-1,-1,-1,-1,-1,-1,-1,-1,-1,-1,-1],"split_conditions":[1.4992676E0,1.3598094E0,1.108101E0,1.9524579E0,-1.4964763E0,-8.802762E-1,1.4252943E0,-2.012258E0,-2.2602122E-4,-3.8510025E-4,-1.9729398E-2,-6.1375755E-1,-6.364201E-1,5.070641E-4,1.3856476E-4,1.8634682E-4,-4.1564393E-1,-1.6995166E-4,-1.181473E-1,-1.228009E0,8.653504E-1,-2.654601E-1,-6.8208385E-1,1.9851832E-1,-2.2856764E-1,-8.981085E-5,-2.6320245E-2,-7.5778116E-5,7.085389E-5,-9.3458766E-1,1.0517967E-5,-7.589034E-1,2.8223114E0,-9.2371294E-5,3.9811078E-1,3.885235E-5,-4.9547627E-5,-9.8001045E-5,-3.7370985E-6,1.2425389E-4,1.6220258E-5,8.386884E-5,2.9155126E-4,-2.2786942E-5,-3.3406637E-4,4.193436E-5,-9.2498817E-7,1.4858355E-4,-3.222744E-5],"split_indices":[2,2,3,1,4,0,3,0,0,0,3,4,0,0,0,0,1,0,0,0,3,3,1,2,1,0,0,0,0,1,0,1,2,0,0,0,0,0,0,0,0,0,0,0,0,0,0,0,0],"split_type":[0,0,0,0,0,0,0,0,0,0,0,0,0,0,0,0,0,0,0,0,0,0,0,0,0,0,0,0,0,0,0,0,0,0,0,0,0,0,0,0,0,0,0,0,0,0,0,0,0],"sum_hessian":[4.59E2,4.31E2,2.8E1,4.24E2,7E0,2.5E1,3E0,4.21E2,3E0,1E0,6E0,1E1,1.5E1,2E0,1E0,3E0,4.18E2,3E0,3E0,2E0,8E0,6E0,9E0,1.52E2,2.66E2,1E0,2E0,1E0,1E0,7E0,1E0,3E0,3E0,1E0,8E0,1.12E2,4E1,3.8E1,2.28E2,1E0,1E0,2E0,5E0,1E0,2E0,2E0,1E0,7E0,1E0],"tree_param":{"num_deleted":"0","num_feature":"5","num_nodes":"49","size_leaf_vector":"1"}},{"base_weights":[1.5070403E-7,-2.8790557E-4,4.2911908E-3,-1.8885524E-4,-5.5139656E-3,2.5251214E-3,4.4093526E-4,1.9413426E-5,-2.5845158E-3,-3.7932376E-4,-2.689068E-3,5.9489966E-3,1.3387126E-5,1.82154E-4,-4.2871823E-5,-3.4348401E-3,1.9561376E-3,-1.6612775E-4,8.3172275E-4,-1.07786E-4,7.3069246E-3,-4.312288E-3,3.040021E-3,-2.0826147E-4,2.2742322E-3,-2.5208382E-4,-2.755629E-3,1.0098107E-4,-7.6400305E-5,-8.846368E-5,3.0748232E-3,-7.4641444E-5,6.979108E-5,8.133955E-3,1.0360198E-5,-8.558711E-3,1.0122067E-3,-9.0985726E-5,4.0517696E-3,1.4952788E-5,-2.151883E-5,3.6468048E-4,4.1781605E-5,1.3380183E-4,-9.614089E-5,1.2239009E-4,1.5976955E-5,8.2191465E-5,2.8426247E-4,-2.2445136E-5,-3.27385E-4,4.1095675E-5,-9.111135E-7,1.4468323E-4,-3.1744028E-5],"categories":[],"categories_nodes":[],"categories_segments":[],"categories_sizes":[],"default_left":[0,0,0,0,0,0,0,0,0,0,0,0,0,0,0,0,0,0,0,0,0,0,0,0,0,0,0,0,0,0,0,0,0,0,0,0,0,0,0,0,0,0,0,0,0,0,0,0,0,0,0,0,0,0,0],"id":19,"left_children":[1,3,5,7,9,11,-1,13,15,-1,17,19,21,-1,23,25,27,-1,29,31,33,35,37,39,41,-1,43,-1,-1,-1,45,-1,-1,47,-1,49,51,-1,53,-1,-1,-1,-1,-1,-1,-1,-1,-1,-1,-1,-1,-1,-1,-1,-1],"loss_changes":[5.698235E-4,2.2258042E-4,4.9587333E-4,2.1210012E-4,1.2713487E-4,2.2351682E-4,0E0,1.4803429E-4,1.3799396E-4,0E0,7.480912E-5,9.125902E-5,2.2258524E-4,0E0,1.4954816E-4,7.4699405E-5,4.666327E-5,0E0,4.2987278E-5,2.3169903E-5,4.9008027E-5,1.6693358E-4,7.373069E-5,1.3129825E-4,2.0955376E-4,0E0,1.01782076E-4,0E0,0E0,0E0,5.4910506E-6,0E0,0E0,3.1929347E-5,0E0,6.538318E-5,1.5331102E-6,0E0,4.0560975E-5,0E0,0E0,0E0,0E0,0E0,0E0,0E0,0E0,0E0,0E0,0E0,0E0,0E0,0E0,0E0,0E0],"parents":[2147483647,0,0,1,1,2,2,3,3,4,4,5,5,7,7,8,8,10,10,11,11,12,12,14,14,15,15,16,16,18,18,19,19,20,20,21,21,22,22,23,23,24,24,26,26,30,30,33,33,35,35,36,36,38,38],"right_children":[2,4,6,8,10,12,-1,14,16,-1,18,20,22,-1,24,26,28,-1,30,32,34,36,38,40,42,-1,44,-1,-1,-1,46,-1,-1,48,-1,50,52,-1,54,-1,-1,-1,-1,-1,-1,-1,-1,-1,-1,-1,-1,-1,-1,-1,-1],"split_conditions":[1.4992676E0,1.3598094E0,1.108101E0,1.5230999E0,-1.4964763E0,-8.802762E-1,4.4093526E-4,-2.012258E0,2.3971143E-1,-3.7932376E-4,-1.9729398E-2,-6.1375755E-1,-6.364201E-1,1.82154E-4,1.3041285E0,7.765911E-1,3.1143466E-1,-1.6612775E-4,-1.181473E-1,-1.228009E0,8.653504E-1,-2.654601E-1,-6.8208385E-1,-4.1564393E-1,-1.5444883E0,-2.5208382E-4,1.0003033E0,1.0098107E-4,-7.6400305E-5,-8.846368E-5,-2.6320245E-2,-7.4641444E-5,6.979108E-5,-9.3458766E-1,1.0360198E-5,-7.589034E-1,2.8223114E0,-9.0985726E-5,3.9811078E-1,1.4952788E-5,-2.151883E-5,3.6468048E-4,4.1781605E-5,1.3380183E-4,-9.614089E-5,1.2239009E-4,1.5976955E-5,8.2191465E-5,2.8426247E-4,-2.2445136E-5,-3.27385E-4,4.1095675E-5,-9.111135E-7,1.4468323E-4,-3.1744028E-5],"split_indices":[2,2,3,1,4,0,0,0,2,0,3,4,0,0,1,0,4,0,0,0,3,3,1,1,4,0,0,0,0,0,0,0,0,1,0,1,2,0,0,0,0,0,0,0,0,0,0,0,0,0,0,0,0,0,0],"split_type":[0,0,0,0,0,0,0,0,0,0,0,0,0,0,0,0,0,0,0,0,0,0,0,0,0,0,0,0,0,0,0,0,0,0,0,0,0,0,0,0,0,0,0,0,0,0,0,0,0,0,0,0,0,0,0],"sum_hessian":[4.59E2,4.31E2,2.8E1,4.24E2,7E0,2.5E1,3E0,3.91E2,3.3E1,1E0,6E0,1E1,1.5E1,3E0,3.88E2,2.8E1,5E0,3E0,3E0,2E0,8E0,6E0,9E0,3.63E2,2.5E1,2E0,2.6E1,4E0,1E0,1E0,2E0,1E0,1E0,7E0,1E0,3E0,3E0,1E0,8E0,1.52E2,2.11E2,1E0,2.4E1,1E0,2.5E1,1E0,1E0,2E0,5E0,1E0,2E0,2E0,1E0,7E0,1E0],"tree_param":{"num_deleted":"0","num_feature":"5","num_nodes":"55","size_leaf_vector":"1"}},{"base_weights":[1.0632793E-6,-2.795076E-4,4.1805655E-3,-1.8226674E-4,-5.41049E-3,2.452609E-3,1.4367141E-2,-1.1444003E-4,-2.1877256E-4,-3.736339E-4,-2.6249993E-3,5.8043418E-3,-4.9954097E-6,4.8810415E-4,1.2987225E-4,1.7805553E-4,-1.7191988E-4,-5.4129953E-3,8.192467E-4,-1.06169064E-4,7.129585E-3,-4.227155E-3,2.9510157E-3,-7.911028E-5,-3.0643498E-3,-4.754951E-5,-1.8482014E-4,-8.713673E-5,3.0287006E-3,-7.352183E-5,6.874422E-5,7.935743E-3,1.0204795E-5,-8.389408E-3,9.918866E-4,-8.962094E-5,3.9427653E-3,1.4334902E-6,-7.241415E-5,-1.660335E-4,-4.0547653E-5,1.2055423E-4,1.5737298E-5,8.054764E-5,2.771559E-4,-2.210846E-5,-3.208373E-4,4.0273757E-5,-8.974466E-7,1.4088528E-4,-3.1267868E-5],"categories":[],"categories_nodes":[],"categories_segments":[],"categories_sizes":[],"default_left":[0,0,0,0,0,0,0,0,0,0,0,0,0,0,0,0,0,0,0,0,0,0,0,0,0,0,0,0,0,0,0,0,0,0,0,0,0,0,0,0,0,0,0,0,0,0,0,0,0,0,0],"id":20,"left_children":[1,3,5,7,9,11,13,15,-1,-1,17,19,21,-1,-1,-1,23,25,27,29,31,33,35,37,39,-1,-1,-1,41,-1,-1,43,-1,45,47,-1,49,-1,-1,-1,-1,-1,-1,-1,-1,-1,-1,-1,-1,-1,-1],"loss_changes":[5.4058596E-4,2.1455644E-4,4.7521992E-4,2.0412522E-4,1.2427443E-4,2.1419706E-4,5.974958E-6,1.4776309E-4,0E0,0E0,7.1652394E-5,8.6918444E-5,2.1216641E-4,0E0,0E0,0E0,1.1223615E-4,1.6838749E-6,4.170733E-5,2.2480024E-5,4.6560745E-5,1.6038211E-4,7.067233E-5,1.20691984E-4,4.7518683E-5,0E0,0E0,0E0,5.3275508E-6,0E0,0E0,2.992095E-5,0E0,6.267952E-5,1.4730199E-6,0E0,3.8696628E-5,0E0,0E0,0E0,0E0,0E0,0E0,0E0,0E0,0E0,0E0,0E0,0E0,0E0,0E0],"parents":[2147483647,0,0,1,1,2,2,3,3,4,4,5,5,6,6,7,7,10,10,11,11,12,12,16,16,17,17,18,18,19,19,20,20,21,21,22,22,23,23,24,24,28,28,31,31,33,33,34,34,36,36],"right_children":[2,4,6,8,10,12,14,16,-1,-1,18,20,22,-1,-1,-1,24,26,28,30,32,34,36,38,40,-1,-1,-1,42,-1,-1,44,-1,46,48,-1,50,-1,-1,-1,-1,-1,-1,-1,-1,-1,-1,-1,-1,-1,-1],"split_conditions":[1.4992676E0,1.3598094E0,1.108101E0,1.9524579E0,-1.4964763E0,-8.802762E-1,1.4252943E0,-2.012258E0,-2.1877256E-4,-3.736339E-4,-1.9729398E-2,-6.1375755E-1,-6.364201E-1,4.8810415E-4,1.2987225E-4,1.7805553E-4,1.5295982E0,-2.012258E0,-1.181473E-1,-1.228009E0,8.653504E-1,-2.654601E-1,-6.8208385E-1,1.705733E0,-6.2538517E-1,-4.754951E-5,-1.8482014E-4,-8.713673E-5,-2.6320245E-2,-7.352183E-5,6.874422E-5,-9.3458766E-1,1.0204795E-5,-7.589034E-1,2.8223114E0,-8.962094E-5,3.9811078E-1,1.4334902E-6,-7.241415E-5,-1.660335E-4,-4.0547653E-5,1.2055423E-4,1.5737298E-5,8.054764E-5,2.771559E-4,-2.210846E-5,-3.208373E-4,4.0273757E-5,-8.974466E-7,1.4088528E-4,-3.1267868E-5],"split_indices":[2,2,3,1,4,0,3,0,0,0,3,4,0,0,0,0,0,0,0,0,3,3,1,4,2,0,0,0,0,0,0,1,0,1,2,0,0,0,0,0,0,0,0,0,0,0,0,0,0,0,0],"split_type":[0,0,0,0,0,0,0,0,0,0,0,0,0,0,0,0,0,0,0,0,0,0,0,0,0,0,0,0,0,0,0,0,0,0,0,0,0,0,0,0,0,0,0,0,0,0,0,0,0,0,0],"sum_hessian":[4.59E2,4.31E2,2.8E1,4.24E2,7E0,2.5E1,3E0,4.21E2,3E0,1E0,6E0,1E1,1.5E1,2E0,1E0,3E0,4.18E2,3E0,3E0,2E0,8E0,6E0,9E0,4.06E2,1.2E1,1E0,2E0,1E0,2E0,1E0,1E0,7E0,1E0,3E0,3E0,1E0,8E0,3.86E2,2E1,4E0,8E0,1E0,1E0,2E0,5E0,1E0,2E0,2E0,1E0,7E0,1E0],"tree_param":{"num_deleted":"0","num_feature":"5","num_nodes":"51","size_leaf_vector":"1"}},{"base_weights":[6.453351E-7,-2.7314812E-4,4.0792013E-3,-1.775476E-4,-5.3177816E-3,2.1626581E-3,3.853823E-4,1.6126418E-5,-2.5566106E-3,-3.6802937E-4,-2.572423E-3,5.418366E-3,-7.824242E-4,1.7404929E-4,-4.31017E-5,-3.4523583E-3,1.9003556E-3,-5.3086984E-3,8.0695807E-4,-1.0457666E-4,6.5334123E-3,-5.2884812E-3,2.3085498E-3,-2.1419102E-4,1.819449E-3,-2.470708E-4,-2.7402637E-3,9.8523116E-5,-7.5275806E-5,-4.683627E-5,-1.8112375E-4,-8.582968E-5,2.9832702E-3,-7.2418996E-5,6.771305E-5,7.1848896E-3,1.0051723E-5,-7.220759E-5,-3.1442055E-4,4.6230084E-3,-1.7402759E-3,-6.42488E-7,-6.982721E-5,2.0319362E-4,6.7579035E-6,1.3177331E-4,-9.661435E-5,1.1874592E-4,1.550124E-5,2.322715E-4,4.0874063E-5,1.8328363E-5,-1.5107212E-5,4.6983667E-5,1.7279762E-4,-7.938365E-5,1.4658932E-5],"categories":[],"categories_nodes":[],"categories_segments":[],"categories_sizes":[],"default_left":[0,0,0,0,0,0,0,0,0,0,0,0,0,0,0,0,0,0,0,0,0,0,0,0,0,0,0,0,0,0,0,0,0,0,0,0,0,0,0,0,0,0,0,0,0,0,0,0,0,0,0,0,0,0,0,0,0],"id":21,"left_children":[1,3,5,7,9,11,-1,13,15,-1,17,19,21,-1,23,25,27,29,31,33,35,37,39,41,43,-1,45,-1,-1,-1,-1,-1,47,-1,-1,49,-1,51,-1,53,55,-1,-1,-1,-1,-1,-1,-1,-1,-1,-1,-1,-1,-1,-1,-1,-1],"loss_changes":[5.147879E-4,2.0739628E-4,4.594791E-4,1.9586537E-4,1.2108139E-4,2.4394764E-4,0E0,1.3526018E-4,1.3431483E-4,0E0,6.901233E-5,7.458328E-5,2.072022E-4,0E0,1.2498676E-4,6.93991E-5,4.4850698E-5,1.4983452E-6,4.0465497E-5,2.1810678E-5,3.7973543E-5,1.6174695E-4,9.238287E-5,1.462092E-4,2.5907764E-4,0E0,9.977652E-5,0E0,0E0,0E0,0E0,0E0,5.168926E-6,0E0,0E0,1.8664898E-5,0E0,1.4864125E-6,0E0,1.183174E-5,9.369162E-6,0E0,0E0,0E0,0E0,0E0,0E0,0E0,0E0,0E0,0E0,0E0,0E0,0E0,0E0,0E0,0E0],"parents":[2147483647,0,0,1,1,2,2,3,3,4,4,5,5,7,7,8,8,10,10,11,11,12,12,14,14,15,15,16,16,17,17,18,18,19,19,20,20,21,21,22,22,23,23,24,24,26,26,32,32,35,35,37,37,39,39,40,40],"right_children":[2,4,6,8,10,12,-1,14,16,-1,18,20,22,-1,24,26,28,30,32,34,36,38,40,42,44,-1,46,-1,-1,-1,-1,-1,48,-1,-1,50,-1,52,-1,54,56,-1,-1,-1,-1,-1,-1,-1,-1,-1,-1,-1,-1,-1,-1,-1,-1],"split_conditions":[1.4992676E0,1.3598094E0,1.0823113E0,1.5402603E0,-1.4964763E0,-8.6317277E-1,3.853823E-4,-2.012258E0,2.3971143E-1,-3.6802937E-4,-1.9729398E-2,-6.1375755E-1,-6.364201E-1,1.7404929E-4,1.2241315E0,7.765911E-1,3.1143466E-1,-2.012258E0,-1.181473E-1,-1.228009E0,8.653504E-1,-7.589034E-1,-1.2529303E-1,9.4055635E-1,1.2282734E0,-2.470708E-4,1.0003033E0,9.8523116E-5,-7.5275806E-5,-4.683627E-5,-1.8112375E-4,-8.582968E-5,-2.6320245E-2,-7.2418996E-5,6.771305E-5,-1.0078676E0,1.0051723E-5,-7.7183664E-1,-3.1442055E-4,-5.539049E-1,2.6487823E0,-6.42488E-7,-6.982721E-5,2.0319362E-4,6.7579035E-6,1.3177331E-4,-9.661435E-5,1.1874592E-4,1.550124E-5,2.322715E-4,4.0874063E-5,1.8328363E-5,-1.5107212E-5,4.6983667E-5,1.7279762E-4,-7.938365E-5,1.4658932E-5],"split_indices":[2,2,3,1,4,0,0,0,2,0,3,4,0,0,1,0,4,0,0,0,3,1,0,1,0,0,0,0,0,0,0,0,0,0,0,0,0,1,0,0,2,0,0,0,0,0,0,0,0,0,0,0,0,0,0,0,0],"split_type":[0,0,0,0,0,0,0,0,0,0,0,0,0,0,0,0,0,0,0,0,0,0,0,0,0,0,0,0,0,0,0,0,0,0,0,0,0,0,0,0,0,0,0,0,0,0,0,0,0,0,0,0,0,0,0,0,0],"sum_hessian":[4.59E2,4.31E2,2.8E1,4.24E2,7E0,2.4E1,4E0,3.93E2,3.1E1,1E0,6E0,1.1E1,1.3E1,3E0,3.9E2,2.6E1,5E0,3E0,3E0,2E0,9E0,5E0,8E0,3.58E2,3.2E1,2E0,2.4E1,4E0,1E0,1E0,2E0,1E0,2E0,1E0,1E0,8E0,1E0,3E0,2E0,5E0,3E0,3.29E2,2.9E1,7E0,2.5E1,1E0,2.3E1,1E0,1E0,7E0,1E0,1E0,2E0,2E0,3E0,2E0,1E0],"tree_param":{"num_deleted":"0","num_feature":"5","num_nodes":"57","size_leaf_vector":"1"}},{"base_weights":[8.1082476E-7,-2.6593215E-4,3.9743334E-3,-1.7192737E-4,-5.2266945E-3,2.3095894E-3,1.3801585E-2,-1.0626923E-4,-2.1167635E-4,-3.6250893E-4,-2.5208993E-3,5.2790227E-3,-2.1992966E-4,4.706344E-4,1.2214344E-4,1.7013318E-4,-1.6116955E-4,-5.2064275E-3,7.9485384E-4,-1.03008E-4,6.3657295E-3,-5.1816935E-3,2.7791215E-3,-4.4163545E-3,-9.9110905E-5,-4.6133726E-5,-1.7750128E-4,-8.4542226E-5,2.9385213E-3,-7.133272E-5,6.669736E-5,6.9996924E-3,9.900948E-6,-6.923606E-5,-3.0813215E-4,-8.708588E-5,3.7329933E-3,2.3464781E-5,-1.6837467E-4,2.0448895E-5,-1.5945296E-5,1.1696474E-4,1.5268723E-5,7.429126E-5,2.3814903E-4,1.1597374E-5,-2.1550226E-5,1.3339054E-4,-2.9608094E-5],"categories":[],"categories_nodes":[],"categories_segments":[],"categories_sizes":[],"default_left":[0,0,0,0,0,0,0,0,0,0,0,0,0,0,0,0,0,0,0,0,0,0,0,0,0,0,0,0,0,0,0,0,0,0,0,0,0,0,0,0,0,0,0,0,0,0,0,0,0],"id":22,"left_children":[1,3,5,7,9,11,13,15,-1,-1,17,19,21,-1,-1,-1,23,25,27,29,31,33,35,37,39,-1,-1,-1,41,-1,-1,43,-1,45,-1,-1,47,-1,-1,-1,-1,-1,-1,-1,-1,-1,-1,-1,-1],"loss_changes":[4.8861513E-4,2.0055826E-4,4.4255983E-4,1.9134482E-4,1.1796612E-4,1.9645318E-4,9.540992E-6,1.3476386E-4,0E0,0E0,6.6470195E-5,7.0840004E-5,2.376093E-4,0E0,0E0,0E0,1.10208035E-4,1.3243916E-6,3.926064E-5,2.1161268E-5,3.5954E-5,1.5540425E-4,6.5035216E-5,4.1698593E-5,1.401252E-4,0E0,0E0,0E0,5.0150193E-6,0E0,0E0,1.8552353E-5,0E0,1.4611829E-6,0E0,0E0,3.4691286E-5,0E0,0E0,0E0,0E0,0E0,0E0,0E0,0E0,0E0,0E0,0E0,0E0],"parents":[2147483647,0,0,1,1,2,2,3,3,4,4,5,5,6,6,7,7,10,10,11,11,12,12,16,16,17,17,18,18,19,19,20,20,21,21,22,22,23,23,24,24,28,28,31,31,33,33,36,36],"right_children":[2,4,6,8,10,12,14,16,-1,-1,18,20,22,-1,-1,-1,24,26,28,30,32,34,36,38,40,-1,-1,-1,42,-1,-1,44,-1,46,-1,-1,48,-1,-1,-1,-1,-1,-1,-1,-1,-1,-1,-1,-1],"split_conditions":[1.4992676E0,1.3598094E0,1.108101E0,1.9524579E0,-1.4964763E0,-8.6317277E-1,1.4252943E0,-2.012258E0,-2.1167635E-4,-3.6250893E-4,-1.9729398E-2,-6.1375755E-1,-6.364201E-1,4.706344E-4,1.2214344E-4,1.7013318E-4,-1.2559679E0,-2.012258E0,-1.181473E-1,-1.228009E0,8.653504E-1,-7.589034E-1,-6.8208385E-1,1.4483275E-1,-4.1564393E-1,-4.6133726E-5,-1.7750128E-4,-8.4542226E-5,-2.6320245E-2,-7.133272E-5,6.669736E-5,-9.3458766E-1,9.900948E-6,-6.6135216E-1,-3.0813215E-4,-8.708588E-5,3.9811078E-1,2.3464781E-5,-1.6837467E-4,2.0448895E-5,-1.5945296E-5,1.1696474E-4,1.5268723E-5,7.429126E-5,2.3814903E-4,1.1597374E-5,-2.1550226E-5,1.3339054E-4,-2.9608094E-5],"split_indices":[2,2,3,1,4,0,3,0,0,0,3,4,0,0,0,0,2,0,0,0,3,1,1,4,1,0,0,0,0,0,0,1,0,0,0,0,0,0,0,0,0,0,0,0,0,0,0,0,0],"split_type":[0,0,0,0,0,0,0,0,0,0,0,0,0,0,0,0,0,0,0,0,0,0,0,0,0,0,0,0,0,0,0,0,0,0,0,0,0,0,0,0,0,0,0,0,0,0,0,0,0],"sum_hessian":[4.59E2,4.31E2,2.8E1,4.24E2,7E0,2.5E1,3E0,4.21E2,3E0,1E0,6E0,1.1E1,1.4E1,2E0,1E0,3E0,4.18E2,3E0,3E0,2E0,9E0,5E0,9E0,5E0,4.13E2,1E0,2E0,1E0,2E0,1E0,1E0,8E0,1E0,3E0,2E0,1E0,8E0,1E0,4E0,1.47E2,2.66E2,1E0,1E0,2E0,6E0,2E0,1E0,7E0,1E0],"tree_param":{"num_deleted":"0","num_feature":"5","num_nodes":"49","size_leaf_vector":"1"}},{"base_weights":[5.4450965E-7,-2.596218E-4,3.8761066E-3,-1.6719768E-4,-5.1372005E-3,2.2409293E-3,1.35357315E-2,-1.0301072E-4,-2.0691364E-4,-3.5707132E-4,-2.470407E-3,5.392692E-3,-6.596562E-5,4.6122173E-4,1.2031128E-4,1.663052E-4,-1.5666957E-4,-5.106143E-3,7.82931E-4,-1.0146294E-4,6.624889E-3,-4.004232E-3,2.6974175E-3,-4.3080156E-3,-9.6126714E-5,-4.544172E-5,-1.7395125E-4,-8.327409E-5,2.8944435E-3,-7.026273E-5,6.569689E-5,7.37173E-3,9.7524335E-6,-7.903021E-3,8.956143E-4,-8.577958E-5,3.632535E-3,2.3112809E-5,-1.6433367E-4,1.9839574E-5,-1.5468728E-5,1.1521026E-4,1.5039691E-5,7.280543E-5,2.584665E-4,-2.1226972E-5,-3.019695E-4,3.6378795E-5,-8.3133745E-7,1.2988904E-4,-2.9163972E-5],"categories":[],"categories_nodes":[],"categories_segments":[],"categories_sizes":[],"default_left":[0,0,0,0,0,0,0,0,0,0,0,0,0,0,0,0,0,0,0,0,0,0,0,0,0,0,0,0,0,0,0,0,0,0,0,0,0,0,0,0,0,0,0,0,0,0,0,0,0,0,0],"id":23,"left_children":[1,3,5,7,9,11,13,15,-1,-1,17,19,21,-1,-1,-1,23,25,27,29,31,33,35,37,39,-1,-1,-1,41,-1,-1,43,-1,45,47,-1,49,-1,-1,-1,-1,-1,-1,-1,-1,-1,-1,-1,-1,-1,-1],"loss_changes":[4.6482E-4,1.9388922E-4,4.277281E-4,1.828782E-4,1.1492691E-4,1.8939617E-4,8.387142E-6,1.2872844E-4,0E0,0E0,6.4022344E-5,7.514085E-5,1.8492813E-4,0E0,0E0,0E0,1.0489498E-4,1.1614393E-6,3.809165E-5,2.053119E-5,3.994818E-5,1.4080231E-4,6.234859E-5,3.9864004E-5,1.3188813E-4,0E0,0E0,0E0,4.8656966E-6,0E0,0E0,2.8295675E-5,0E0,5.5122306E-5,1.2044256E-6,0E0,3.3098207E-5,0E0,0E0,0E0,0E0,0E0,0E0,0E0,0E0,0E0,0E0,0E0,0E0,0E0,0E0],"parents":[2147483647,0,0,1,1,2,2,3,3,4,4,5,5,6,6,7,7,10,10,11,11,12,12,16,16,17,17,18,18,19,19,20,20,21,21,22,22,23,23,24,24,28,28,31,31,33,33,34,34,36,36],"right_children":[2,4,6,8,10,12,14,16,-1,-1,18,20,22,-1,-1,-1,24,26,28,30,32,34,36,38,40,-1,-1,-1,42,-1,-1,44,-1,46,48,-1,50,-1,-1,-1,-1,-1,-1,-1,-1,-1,-1,-1,-1,-1,-1],"split_conditions":[1.4992676E0,1.3598094E0,1.108101E0,1.9524579E0,-1.4964763E0,-8.802762E-1,1.4252943E0,-2.012258E0,-2.0691364E-4,-3.5707132E-4,-1.9729398E-2,-6.1375755E-1,-6.364201E-1,4.6122173E-4,1.2031128E-4,1.663052E-4,-1.2559679E0,-2.012258E0,-1.181473E-1,-1.228009E0,8.653504E-1,-2.654601E-1,-6.8208385E-1,1.4483275E-1,-4.1564393E-1,-4.544172E-5,-1.7395125E-4,-8.327409E-5,-2.6320245E-2,-7.026273E-5,6.569689E-5,-9.3458766E-1,9.7524335E-6,-7.589034E-1,2.8223114E0,-8.577958E-5,3.9811078E-1,2.3112809E-5,-1.6433367E-4,1.9839574E-5,-1.5468728E-5,1.1521026E-4,1.5039691E-5,7.280543E-5,2.584665E-4,-2.1226972E-5,-3.019695E-4,3.6378795E-5,-8.3133745E-7,1.2988904E-4,-2.9163972E-5],"split_indices":[2,2,3,1,4,0,3,0,0,0,3,4,0,0,0,0,2,0,0,0,3,3,1,4,1,0,0,0,0,0,0,1,0,1,2,0,0,0,0,0,0,0,0,0,0,0,0,0,0,0,0],"split_type":[0,0,0,0,0,0,0,0,0,0,0,0,0,0,0,0,0,0,0,0,0,0,0,0,0,0,0,0,0,0,0,0,0,0,0,0,0,0,0,0,0,0,0,0,0,0,0,0,0,0,0],"sum_hessian":[4.59E2,4.31E2,2.8E1,4.24E2,7E0,2.5E1,3E0,4.21E2,3E0,1E0,6E0,1E1,1.5E1,2E0,1E0,3E0,4.18E2,3E0,3E0,2E0,8E0,6E0,9E0,5E0,4.13E2,1E0,2E0,1E0,2E0,1E0,1E0,7E0,1E0,3E0,3E0,1E0,8E0,1E0,4E0,1.47E2,2.66E2,1E0,1E0,2E0,5E0,1E0,2E0,2E0,1E0,7E0,1E0],"tree_param":{"num_deleted":"0","num_feature":"5","num_nodes":"51","size_leaf_vector":"1"}},{"base_weights":[3.9409767E-7,-2.5346963E-4,3.7820747E-3,-1.6259933E-4,-5.0492706E-3,2.1761535E-3,1.3275042E-2,-7.774592E-6,-2.8683285E-3,-3.5171525E-4,-2.4209258E-3,5.2614985E-3,-8.103077E-5,4.5199727E-4,1.18506614E-4,1.6256332E-4,-6.202068E-5,1.0569481E-3,-4.6516964E-3,-5.007807E-3,7.711871E-4,-9.9940844E-5,6.4640343E-3,-3.925198E-3,2.6179894E-3,2.2370466E-4,-1.0925464E-3,-5.054993E-3,3.9367606E-3,-5.2119233E-3,5.6275618E-5,-4.4760094E-5,-1.7047222E-4,-8.2024984E-5,2.8510268E-3,-6.9208785E-5,6.471145E-5,7.1919872E-3,9.606147E-6,-7.7467295E-3,8.7763276E-4,3.8891789E-3,-1.644512E-3,3.6367834E-5,-9.458488E-6,-1.1855405E-4,-3.687221E-6,-2.0036318E-4,-2.7111495E-5,1.3103052E-4,2.6732176E-5,-2.476772E-4,-8.593021E-5,1.1348211E-4,1.4814095E-5,7.134933E-5,2.5200483E-4,-2.0908568E-5,-2.9593013E-4,3.565122E-5,-8.188672E-7,1.4155086E-4,-2.8726512E-5,-8.4492895E-5,1.0489854E-5],"categories":[],"categories_nodes":[],"categories_segments":[],"categories_sizes":[],"default_left":[0,0,0,0,0,0,0,0,0,0,0,0,0,0,0,0,0,0,0,0,0,0,0,0,0,0,0,0,0,0,0,0,0,0,0,0,0,0,0,0,0,0,0,0,0,0,0,0,0,0,0,0,0,0,0,0,0,0,0,0,0,0,0,0,0],"id":24,"left_children":[1,3,5,7,9,11,13,15,17,-1,19,21,23,-1,-1,-1,25,27,29,31,33,35,37,39,41,43,45,47,49,51,-1,-1,-1,-1,53,-1,-1,55,-1,57,59,61,63,-1,-1,-1,-1,-1,-1,-1,-1,-1,-1,-1,-1,-1,-1,-1,-1,-1,-1,-1,-1,-1,-1],"loss_changes":[4.4257313E-4,1.874428E-4,4.1321522E-4,1.7801607E-4,1.1196204E-4,1.8149536E-4,7.306633E-6,1.1896686E-4,1.6592148E-4,0E0,6.166528E-5,7.156658E-5,1.7628392E-4,0E0,0E0,0E0,1.1802333E-4,1.6071026E-4,6.8287336E-5,1.008877E-6,3.695747E-5,1.9919875E-5,3.7948863E-5,1.3527798E-4,6.0580263E-5,1.6768758E-4,2.4071708E-4,1.4186568E-5,3.9828155E-6,8.354237E-5,0E0,0E0,0E0,0E0,4.720823E-6,0E0,0E0,2.6547874E-5,0E0,5.2839692E-5,1.157232E-6,3.6668665E-5,7.995822E-6,0E0,0E0,0E0,0E0,0E0,0E0,0E0,0E0,0E0,0E0,0E0,0E0,0E0,0E0,0E0,0E0,0E0,0E0,0E0,0E0,0E0,0E0],"parents":[2147483647,0,0,1,1,2,2,3,3,4,4,5,5,6,6,7,7,8,8,10,10,11,11,12,12,16,16,17,17,18,18,19,19,20,20,21,21,22,22,23,23,24,24,25,25,26,26,27,27,28,28,29,29,34,34,37,37,39,39,40,40,41,41,42,42],"right_children":[2,4,6,8,10,12,14,16,18,-1,20,22,24,-1,-1,-1,26,28,30,32,34,36,38,40,42,44,46,48,50,52,-1,-1,-1,-1,54,-1,-1,56,-1,58,60,62,64,-1,-1,-1,-1,-1,-1,-1,-1,-1,-1,-1,-1,-1,-1,-1,-1,-1,-1,-1,-1,-1,-1],"split_conditions":[1.4992676E0,1.3598094E0,1.108101E0,1.6155871E0,-1.4964763E0,-8.802762E-1,1.4252943E0,-2.012258E0,7.227284E-2,-3.5171525E-4,-1.9729398E-2,-6.1375755E-1,-6.364201E-1,4.5199727E-4,1.18506614E-4,1.6256332E-4,1.8926948E-1,1.684E0,1.2294763E0,-2.012258E0,-1.181473E-1,-1.228009E0,8.653504E-1,-2.654601E-1,8.7490284E-1,-4.1564393E-1,-8.558495E-1,5.385104E-1,1.1662066E0,3.2256725E-1,5.6275618E-5,-4.4760094E-5,-1.7047222E-4,-8.2024984E-5,-2.6320245E-2,-6.9208785E-5,6.471145E-5,-9.3458766E-1,9.606147E-6,-7.589034E-1,2.8223114E0,3.9811078E-1,1.0792244E-1,3.6367834E-5,-9.458488E-6,-1.1855405E-4,-3.687221E-6,-2.0036318E-4,-2.7111495E-5,1.3103052E-4,2.6732176E-5,-2.476772E-4,-8.593021E-5,1.1348211E-4,1.4814095E-5,7.134933E-5,2.5200483E-4,-2.0908568E-5,-2.9593013E-4,3.565122E-5,-8.188672E-7,1.4155086E-4,-2.8726512E-5,-8.4492895E-5,1.0489854E-5],"split_indices":[2,2,3,1,4,0,3,0,4,0,3,4,0,0,0,0,2,1,3,0,0,0,3,3,4,1,4,0,0,4,0,0,0,0,0,0,0,1,0,1,2,0,0,0,0,0,0,0,0,0,0,0,0,0,0,0,0,0,0,0,0,0,0,0,0],"split_type":[0,0,0,0,0,0,0,0,0,0,0,0,0,0,0,0,0,0,0,0,0,0,0,0,0,0,0,0,0,0,0,0,0,0,0,0,0,0,0,0,0,0,0,0,0,0,0,0,0,0,0,0,0,0,0,0,0,0,0,0,0,0,0,0,0],"sum_hessian":[4.59E2,4.31E2,2.8E1,4.24E2,7E0,2.5E1,3E0,4.02E2,2.2E1,1E0,6E0,1E1,1.5E1,2E0,1E0,3E0,3.99E2,7E0,1.5E1,3E0,3E0,2E0,8E0,6E0,9E0,3.13E2,8.6E1,2E0,5E0,1.4E1,1E0,1E0,2E0,1E0,2E0,1E0,1E0,7E0,1E0,3E0,3E0,7E0,2E0,1.1E2,2.03E2,2.1E1,6.5E1,1E0,1E0,4E0,1E0,5E0,9E0,1E0,1E0,2E0,5E0,1E0,2E0,2E0,1E0,6E0,1E0,1E0,1E0],"tree_param":{"num_deleted":"0","num_feature":"5","num_nodes":"65","size_leaf_vector":"1"}},{"base_weights":[6.7720215E-8,-2.477185E-4,3.6912255E-3,-1.583797E-4,-4.962877E-3,2.114149E-3,1.3019417E-2,3.6633424E-5,-2.2043723E-3,-3.4643954E-4,-2.3724353E-3,5.133514E-3,-9.3798786E-5,4.4295733E-4,1.1672901E-4,-1.2832989E-4,2.6672813E-3,-2.8919694E-3,1.8302081E-3,-1.4734143E-4,7.5961935E-4,-9.844188E-5,6.307109E-3,-2.7236661E-3,3.6765544E-3,5.6561176E-4,-6.3836086E-4,3.5675397E-4,1.7074487E-3,-2.3863817E-4,-2.2893068E-3,9.484209E-5,-7.238651E-5,-8.0794605E-5,2.8082614E-3,-6.817065E-5,6.3740765E-5,7.0166467E-3,9.462055E-6,-5.755141E-3,1.4588371E-3,4.603709E-3,-2.8295613E-5,2.4442463E-6,8.327697E-5,-9.304634E-5,-2.4779738E-6,1.0037429E-4,-7.0523056E-6,1.2830248E-4,-7.98959E-5,1.11779875E-4,1.4591884E-5,6.992234E-5,2.457047E-4,-4.1472707E-5,-2.9001152E-4,5.510968E-5,-8.065842E-7,1.0332505E-5,1.6160052E-4],"categories":[],"categories_nodes":[],"categories_segments":[],"categories_sizes":[],"default_left":[0,0,0,0,0,0,0,0,0,0,0,0,0,0,0,0,0,0,0,0,0,0,0,0,0,0,0,0,0,0,0,0,0,0,0,0,0,0,0,0,0,0,0,0,0,0,0,0,0,0,0,0,0,0,0,0,0,0,0,0,0],"id":25,"left_children":[1,3,5,7,9,11,13,15,17,-1,19,21,23,-1,-1,25,27,29,31,-1,33,35,37,39,41,43,45,-1,47,-1,49,-1,-1,-1,51,-1,-1,53,-1,55,57,59,-1,-1,-1,-1,-1,-1,-1,-1,-1,-1,-1,-1,-1,-1,-1,-1,-1,-1,-1],"loss_changes":[4.216387E-4,1.8119252E-4,3.9910196E-4,1.696538E-4,1.09069835E-4,1.7381313E-4,6.2957406E-6,1.6915289E-4,1.07937056E-4,0E0,5.9395603E-5,6.816303E-5,1.6866217E-4,0E0,0E0,1.3025402E-4,1.833372E-4,7.942345E-5,4.151839E-5,0E0,3.585706E-5,1.9326757E-5,3.6049052E-5,1.3518735E-4,3.432468E-5,1.6670658E-4,2.8995986E-4,0E0,7.080281E-5,0E0,8.503927E-5,0E0,0E0,0E0,4.580259E-6,0E0,0E0,2.490246E-5,0E0,8.927008E-5,2.8585382E-6,1.8154242E-5,0E0,0E0,0E0,0E0,0E0,0E0,0E0,0E0,0E0,0E0,0E0,0E0,0E0,0E0,0E0,0E0,0E0,0E0,0E0],"parents":[2147483647,0,0,1,1,2,2,3,3,4,4,5,5,6,6,7,7,8,8,10,10,11,11,12,12,15,15,16,16,17,17,18,18,20,20,21,21,22,22,23,23,24,24,25,25,26,26,28,28,30,30,34,34,37,37,39,39,40,40,41,41],"right_children":[2,4,6,8,10,12,14,16,18,-1,20,22,24,-1,-1,26,28,30,32,-1,34,36,38,40,42,44,46,-1,48,-1,50,-1,-1,-1,52,-1,-1,54,-1,56,58,60,-1,-1,-1,-1,-1,-1,-1,-1,-1,-1,-1,-1,-1,-1,-1,-1,-1,-1,-1],"split_conditions":[1.4992676E0,1.3598094E0,1.108101E0,1.5025727E0,-1.4964763E0,-8.802762E-1,1.4252943E0,1.3041285E0,2.3971143E-1,-3.4643954E-4,-1.9729398E-2,-6.1375755E-1,1.7798197E-1,4.4295733E-4,1.1672901E-4,-4.1564393E-1,-1.5444883E0,7.765911E-1,3.1143466E-1,-1.4734143E-4,-1.181473E-1,-1.228009E0,8.653504E-1,-2.654601E-1,3.9811078E-1,-5.7775027E-1,-2.2856764E-1,3.5675397E-4,1.3522168E0,-2.3863817E-4,1.0003033E0,9.484209E-5,-7.238651E-5,-8.0794605E-5,-2.6320245E-2,-6.817065E-5,6.3740765E-5,-9.3458766E-1,9.462055E-6,-1.3296445E-1,2.8223114E0,-8.9675087E-1,-2.8295613E-5,2.4442463E-6,8.327697E-5,-9.304634E-5,-2.4779738E-6,1.0037429E-4,-7.0523056E-6,1.2830248E-4,-7.98959E-5,1.11779875E-4,1.4591884E-5,6.992234E-5,2.457047E-4,-4.1472707E-5,-2.9001152E-4,5.510968E-5,-8.065842E-7,1.0332505E-5,1.6160052E-4],"split_indices":[2,2,3,1,4,0,3,1,2,0,3,4,1,0,0,1,4,0,4,0,0,0,3,3,0,1,1,0,0,0,0,0,0,0,0,0,0,1,0,1,2,3,0,0,0,0,0,0,0,0,0,0,0,0,0,0,0,0,0,0,0],"split_type":[0,0,0,0,0,0,0,0,0,0,0,0,0,0,0,0,0,0,0,0,0,0,0,0,0,0,0,0,0,0,0,0,0,0,0,0,0,0,0,0,0,0,0,0,0,0,0,0,0,0,0,0,0,0,0,0,0,0,0,0,0],"sum_hessian":[4.59E2,4.31E2,2.8E1,4.24E2,7E0,2.5E1,3E0,3.88E2,3.6E1,1E0,6E0,1E1,1.5E1,2E0,1E0,3.66E2,2.2E1,3.1E1,5E0,3E0,3E0,2E0,8E0,9E0,6E0,1.55E2,2.11E2,1E0,2.1E1,2E0,2.9E1,4E0,1E0,1E0,2E0,1E0,1E0,7E0,1E0,5E0,4E0,5E0,1E0,1.28E2,2.7E1,3.8E1,1.73E2,1.1E1,1E1,1E0,2.8E1,1E0,1E0,2E0,5E0,3E0,2E0,3E0,1E0,1E0,4E0],"tree_param":{"num_deleted":"0","num_feature":"5","num_nodes":"61","size_leaf_vector":"1"}},{"base_weights":[1.3071958E-6,-2.4069368E-4,3.6062407E-3,-1.5298717E-4,-4.870016E-3,2.0579214E-3,1.2768757E-2,-9.2115566E-5,-1.961008E-4,-3.412429E-4,-2.3158002E-3,5.0086593E-3,-9.933119E-5,4.3409818E-4,1.1497807E-4,1.5885066E-4,-1.4332424E-4,-4.800875E-3,7.4822514E-4,-9.696527E-5,6.1540166E-3,-3.7745738E-3,2.4832718E-3,-2.8933184E-5,-2.3099293E-3,-4.187857E-5,-1.6411596E-4,-7.9582685E-5,2.7661375E-3,-6.7148096E-5,6.278466E-5,6.845601E-3,9.320123E-6,-7.438163E-3,8.3265867E-4,3.707639E-3,-1.6094643E-3,8.162237E-6,-3.109021E-5,-5.200693E-6,-1.2709525E-4,1.1010318E-4,1.4373006E-5,6.852389E-5,2.3956211E-4,-1.9972847E-5,-2.8421127E-4,3.3836004E-5,-7.9448546E-7,1.3508223E-4,-2.7871181E-5,-8.260341E-5,1.0177516E-5],"categories":[],"categories_nodes":[],"categories_segments":[],"categories_sizes":[],"default_left":[0,0,0,0,0,0,0,0,0,0,0,0,0,0,0,0,0,0,0,0,0,0,0,0,0,0,0,0,0,0,0,0,0,0,0,0,0,0,0,0,0,0,0,0,0,0,0,0,0,0,0,0,0],"id":26,"left_children":[1,3,5,7,9,11,13,15,-1,-1,17,19,21,-1,-1,-1,23,25,27,29,31,33,35,37,39,-1,-1,-1,41,-1,-1,43,-1,45,47,49,51,-1,-1,-1,-1,-1,-1,-1,-1,-1,-1,-1,-1,-1,-1,-1,-1],"loss_changes":[4.0217064E-4,1.7465636E-4,3.8513142E-4,1.6454709E-4,1.0657456E-4,1.6600019E-4,5.350623E-6,1.1717527E-4,0E0,0E0,5.6892462E-5,6.492212E-5,1.6124036E-4,0E0,0E0,0E0,1.03778235E-4,1.4839243E-6,3.4789417E-5,1.8751305E-5,3.42438E-5,1.243465E-4,5.607742E-5,1.21273675E-4,8.570739E-5,0E0,0E0,0E0,4.4438802E-6,0E0,0E0,2.33537E-5,0E0,4.8834918E-5,1.0443714E-6,3.3676297E-5,7.6219967E-6,0E0,0E0,0E0,0E0,0E0,0E0,0E0,0E0,0E0,0E0,0E0,0E0,0E0,0E0,0E0,0E0],"parents":[2147483647,0,0,1,1,2,2,3,3,4,4,5,5,6,6,7,7,10,10,11,11,12,12,16,16,17,17,18,18,19,19,20,20,21,21,22,22,23,23,24,24,28,28,31,31,33,33,34,34,35,35,36,36],"right_children":[2,4,6,8,10,12,14,16,-1,-1,18,20,22,-1,-1,-1,24,26,28,30,32,34,36,38,40,-1,-1,-1,42,-1,-1,44,-1,46,48,50,52,-1,-1,-1,-1,-1,-1,-1,-1,-1,-1,-1,-1,-1,-1,-1,-1],"split_conditions":[1.4992676E0,1.3598094E0,1.108101E0,1.9524579E0,-1.4964763E0,-8.802762E-1,1.4252943E0,-2.012258E0,-1.961008E-4,-3.412429E-4,-1.9729398E-2,-6.1375755E-1,-6.364201E-1,4.3409818E-4,1.1497807E-4,1.5885066E-4,1.705733E0,-2.012258E0,-1.181473E-1,-1.228009E0,8.653504E-1,-2.654601E-1,8.7490284E-1,1.8926948E-1,1.6565545E-1,-4.187857E-5,-1.6411596E-4,-7.9582685E-5,-2.6320245E-2,-6.7148096E-5,6.278466E-5,-9.3458766E-1,9.320123E-6,-7.589034E-1,2.8223114E0,3.9811078E-1,1.0792244E-1,8.162237E-6,-3.109021E-5,-5.200693E-6,-1.2709525E-4,1.1010318E-4,1.4373006E-5,6.852389E-5,2.3956211E-4,-1.9972847E-5,-2.8421127E-4,3.3836004E-5,-7.9448546E-7,1.3508223E-4,-2.7871181E-5,-8.260341E-5,1.0177516E-5],"split_indices":[2,2,3,1,4,0,3,0,0,0,3,4,0,0,0,0,4,0,0,0,3,3,4,2,0,0,0,0,0,0,0,1,0,1,2,0,0,0,0,0,0,0,0,0,0,0,0,0,0,0,0,0,0],"split_type":[0,0,0,0,0,0,0,0,0,0,0,0,0,0,0,0,0,0,0,0,0,0,0,0,0,0,0,0,0,0,0,0,0,0,0,0,0,0,0,0,0,0,0,0,0,0,0,0,0,0,0,0,0],"sum_hessian":[4.59E2,4.31E2,2.8E1,4.24E2,7E0,2.5E1,3E0,4.21E2,3E0,1E0,6E0,1E1,1.5E1,2E0,1E0,3E0,4.18E2,3E0,3E0,2E0,8E0,6E0,9E0,3.98E2,2E1,1E0,2E0,1E0,2E0,1E0,1E0,7E0,1E0,3E0,3E0,7E0,2E0,3.07E2,9.1E1,1E1,1E1,1E0,1E0,2E0,5E0,1E0,2E0,2E0,1E0,6E0,1E0,1E0,1E0],"tree_param":{"num_deleted":"0","num_feature":"5","num_nodes":"53","size_leaf_vector":"1"}},{"base_weights":[1.11789E-6,-2.3508121E-4,3.5196315E-3,